<?xml version="1.0"?>
<opencv_storage>
<cascade>
  <stageType>BOOST</stageType>
  <featureType>HAAR</featureType>
  <height>40</height>
  <width>40</width>
  <stageParams>
    <boostType>GAB</boostType>
    <minHitRate>9.9000000953674316e-01</minHitRate>
    <maxFalseAlarm>5.0000000000000000e-01</maxFalseAlarm>
    <weightTrimRate>9.4999999999999996e-01</weightTrimRate>
    <maxDepth>1</maxDepth>
    <maxWeakCount>100</maxWeakCount></stageParams>
  <featureParams>
    <maxCatCount>0</maxCatCount>
    <featSize>1</featSize>
    <mode>ALL</mode></featureParams>
  <stageNum>20</stageNum>
  <stages>
    <!-- stage 0 -->
    <_>
      <maxWeakCount>11</maxWeakCount>
      <stageThreshold>-9.7845119237899780e-01</stageThreshold>
      <weakClassifiers>
        <_>
          <internalNodes>
            0 -1 185 -5.7537741959095001e-02</internalNodes>
          <leafValues>
            6.8907564878463745e-01 -5.3773581981658936e-01</leafValues></_>
        <_>
          <internalNodes>
            0 -1 290 -4.2483069002628326e-02</internalNodes>
          <leafValues>
            6.9948756694793701e-01 -2.5393310189247131e-01</leafValues></_>
        <_>
          <internalNodes>
            0 -1 23 1.1849511414766312e-01</internalNodes>
          <leafValues>
            -1.7972034215927124e-01 6.8946856260299683e-01</leafValues></_>
        <_>
          <internalNodes>
            0 -1 318 1.7868564464151859e-04</internalNodes>
          <leafValues>
            1.5436069667339325e-01 -7.8654825687408447e-01</leafValues></_>
        <_>
          <internalNodes>
            0 -1 222 1.0114779695868492e-02</internalNodes>
          <leafValues>
            -2.2216969728469849e-01 5.5187904834747314e-01</leafValues></_>
        <_>
          <internalNodes>
            0 -1 25 -3.3532606903463602e-04</internalNodes>
          <leafValues>
            -5.5654013156890869e-01 2.2623950242996216e-01</leafValues></_>
        <_>
          <internalNodes>
            0 -1 218 2.5064770132303238e-02</internalNodes>
          <leafValues>
            -2.5632017850875854e-01 4.9965798854827881e-01</leafValues></_>
        <_>
          <internalNodes>
            0 -1 110 -6.4200796186923981e-02</internalNodes>
          <leafValues>
            6.7192333936691284e-01 -1.6393297910690308e-01</leafValues></_>
        <_>
          <internalNodes>
            0 -1 176 -3.0358115327544510e-04</internalNodes>
          <leafValues>
            -7.5553607940673828e-01 1.8749597668647766e-01</leafValues></_>
        <_>
          <internalNodes>
            0 -1 26 5.9752428531646729e-01</internalNodes>
          <leafValues>
            -1.3944220542907715e-01 1.</leafValues></_>
        <_>
          <internalNodes>
            0 -1 332 2.9015564359724522e-04</internalNodes>
          <leafValues>
            2.3350848257541656e-01 -5.7997345924377441e-01</leafValues></_></weakClassifiers></_>
    <!-- stage 1 -->
    <_>
      <maxWeakCount>11</maxWeakCount>
      <stageThreshold>-7.1664345264434814e-01</stageThreshold>
      <weakClassifiers>
        <_>
          <internalNodes>
            0 -1 14 6.3177359104156494e-01</internalNodes>
          <leafValues>
            -2.6402640342712402e-01 8.8435375690460205e-01</leafValues></_>
        <_>
          <internalNodes>
            0 -1 127 -5.4354026913642883e-02</internalNodes>
          <leafValues>
            4.3846827745437622e-01 -3.6497646570205688e-01</leafValues></_>
        <_>
          <internalNodes>
            0 -1 212 2.2072094678878784e-01</internalNodes>
          <leafValues>
            -1.0770340263843536e-01 8.8724929094314575e-01</leafValues></_>
        <_>
          <internalNodes>
            0 -1 143 -2.8293143957853317e-02</internalNodes>
          <leafValues>
            4.4037723541259766e-01 -2.0157207548618317e-01</leafValues></_>
        <_>
          <internalNodes>
            0 -1 194 -1.3525309041142464e-02</internalNodes>
          <leafValues>
            4.8808333277702332e-01 -2.3780691623687744e-01</leafValues></_>
        <_>
          <internalNodes>
            0 -1 32 -1.5530911041423678e-03</internalNodes>
          <leafValues>
            -7.6579999923706055e-01 1.4790703356266022e-01</leafValues></_>
        <_>
          <internalNodes>
            0 -1 85 -3.0629843473434448e-02</internalNodes>
          <leafValues>
            5.7643562555313110e-01 -1.7457829415798187e-01</leafValues></_>
        <_>
          <internalNodes>
            0 -1 102 1.4606499671936035e-01</internalNodes>
          <leafValues>
            -1.1675802618265152e-01 8.4099942445755005e-01</leafValues></_>
        <_>
          <internalNodes>
            0 -1 82 1.3172527542337775e-03</internalNodes>
          <leafValues>
            1.6950416564941406e-01 -6.6657990217208862e-01</leafValues></_>
        <_>
          <internalNodes>
            0 -1 151 -1.3944802340120077e-03</internalNodes>
          <leafValues>
            -8.4735941886901855e-01 1.1709041148424149e-01</leafValues></_>
        <_>
          <internalNodes>
            0 -1 95 1.2123434804379940e-02</internalNodes>
          <leafValues>
            -1.6297970712184906e-01 7.1164363622665405e-01</leafValues></_></weakClassifiers></_>
    <!-- stage 2 -->
    <_>
      <maxWeakCount>11</maxWeakCount>
      <stageThreshold>-7.4585580825805664e-01</stageThreshold>
      <weakClassifiers>
        <_>
          <internalNodes>
            0 -1 155 1.2082230299711227e-01</internalNodes>
          <leafValues>
            -3.2068312168121338e-01 7.2117960453033447e-01</leafValues></_>
        <_>
          <internalNodes>
            0 -1 167 4.1840858757495880e-02</internalNodes>
          <leafValues>
            -2.1668085455894470e-01 5.8375906944274902e-01</leafValues></_>
        <_>
          <internalNodes>
            0 -1 13 3.2744199037551880e-02</internalNodes>
          <leafValues>
            -2.5008577108383179e-01 4.1729754209518433e-01</leafValues></_>
        <_>
          <internalNodes>
            0 -1 195 -2.1551173180341721e-02</internalNodes>
          <leafValues>
            5.9265434741973877e-01 -1.6321028769016266e-01</leafValues></_>
        <_>
          <internalNodes>
            0 -1 271 -4.7792373225092888e-03</internalNodes>
          <leafValues>
            5.1923930644989014e-01 -1.5633575618267059e-01</leafValues></_>
        <_>
          <internalNodes>
            0 -1 225 1.1873630806803703e-02</internalNodes>
          <leafValues>
            -1.4047718048095703e-01 5.7432323694229126e-01</leafValues></_>
        <_>
          <internalNodes>
            0 -1 248 -3.0894828960299492e-03</internalNodes>
          <leafValues>
            3.1051081418991089e-01 -2.7866041660308838e-01</leafValues></_>
        <_>
          <internalNodes>
            0 -1 304 -1.4022583141922951e-02</internalNodes>
          <leafValues>
            4.0715759992599487e-01 -2.0228622853755951e-01</leafValues></_>
        <_>
          <internalNodes>
            0 -1 307 5.3911125287413597e-03</internalNodes>
          <leafValues>
            -1.8189498782157898e-01 4.7169733047485352e-01</leafValues></_>
        <_>
          <internalNodes>
            0 -1 254 -5.4816165938973427e-03</internalNodes>
          <leafValues>
            3.9870053529739380e-01 -2.1097296476364136e-01</leafValues></_>
        <_>
          <internalNodes>
            0 -1 401 -1.7575926904100925e-04</internalNodes>
          <leafValues>
            -5.0193107128143311e-01 1.7658704519271851e-01</leafValues></_></weakClassifiers></_>
    <!-- stage 3 -->
    <_>
      <maxWeakCount>13</maxWeakCount>
      <stageThreshold>-6.4564234018325806e-01</stageThreshold>
      <weakClassifiers>
        <_>
          <internalNodes>
            0 -1 144 1.3329657912254333e-01</internalNodes>
          <leafValues>
            -2.6373627781867981e-01 6.8926554918289185e-01</leafValues></_>
        <_>
          <internalNodes>
            0 -1 51 1.3065525330603123e-02</internalNodes>
          <leafValues>
            -1.2947952747344971e-01 6.9954282045364380e-01</leafValues></_>
        <_>
          <internalNodes>
            0 -1 186 -2.2631725296378136e-02</internalNodes>
          <leafValues>
            5.3564077615737915e-01 -1.5912386775016785e-01</leafValues></_>
        <_>
          <internalNodes>
            0 -1 6 1.1972790583968163e-02</internalNodes>
          <leafValues>
            -1.9387921690940857e-01 4.2836934328079224e-01</leafValues></_>
        <_>
          <internalNodes>
            0 -1 219 -2.5929855182766914e-03</internalNodes>
          <leafValues>
            3.7893787026405334e-01 -2.4428226053714752e-01</leafValues></_>
        <_>
          <internalNodes>
            0 -1 178 3.6377724260091782e-02</internalNodes>
          <leafValues>
            1.1001991480588913e-01 -7.9635298252105713e-01</leafValues></_>
        <_>
          <internalNodes>
            0 -1 81 8.1634235382080078e-01</internalNodes>
          <leafValues>
            -9.5442458987236023e-02 8.2092380523681641e-01</leafValues></_>
        <_>
          <internalNodes>
            0 -1 205 -4.3716025538742542e-04</internalNodes>
          <leafValues>
            2.9906162619590759e-01 -2.5399479269981384e-01</leafValues></_>
        <_>
          <internalNodes>
            0 -1 255 4.3619140982627869e-02</internalNodes>
          <leafValues>
            -1.2677021324634552e-01 5.1634740829467773e-01</leafValues></_>
        <_>
          <internalNodes>
            0 -1 54 -1.1348402127623558e-02</internalNodes>
          <leafValues>
            3.3339816331863403e-01 -2.7344116568565369e-01</leafValues></_>
        <_>
          <internalNodes>
            0 -1 265 6.7740678787231445e-04</internalNodes>
          <leafValues>
            1.8492919206619263e-01 -4.5502954721450806e-01</leafValues></_>
        <_>
          <internalNodes>
            0 -1 215 -1.0708246380090714e-02</internalNodes>
          <leafValues>
            5.0052422285079956e-01 -1.5305407345294952e-01</leafValues></_>
        <_>
          <internalNodes>
            0 -1 216 3.3497724682092667e-02</internalNodes>
          <leafValues>
            -2.0728337764739990e-01 4.6234080195426941e-01</leafValues></_></weakClassifiers></_>
    <!-- stage 4 -->
    <_>
      <maxWeakCount>15</maxWeakCount>
      <stageThreshold>-6.9121158123016357e-01</stageThreshold>
      <weakClassifiers>
        <_>
          <internalNodes>
            0 -1 142 5.2355315536260605e-02</internalNodes>
          <leafValues>
            -2.8227570652961731e-01 5.1693004369735718e-01</leafValues></_>
        <_>
          <internalNodes>
            0 -1 274 -5.3953486494719982e-03</internalNodes>
          <leafValues>
            5.9728312492370605e-01 -1.6209405660629272e-01</leafValues></_>
        <_>
          <internalNodes>
            0 -1 165 1.3952751178294420e-03</internalNodes>
          <leafValues>
            -1.7610995471477509e-01 4.8292562365531921e-01</leafValues></_>
        <_>
          <internalNodes>
            0 -1 70 -3.0934992246329784e-03</internalNodes>
          <leafValues>
            6.7442303895950317e-01 -1.3294097781181335e-01</leafValues></_>
        <_>
          <internalNodes>
            0 -1 139 3.4873701632022858e-02</internalNodes>
          <leafValues>
            -2.1370477974414825e-01 4.6255525946617126e-01</leafValues></_>
        <_>
          <internalNodes>
            0 -1 181 -1.7543043941259384e-03</internalNodes>
          <leafValues>
            4.4883179664611816e-01 -2.0477496087551117e-01</leafValues></_>
        <_>
          <internalNodes>
            0 -1 309 7.2825059760361910e-05</internalNodes>
          <leafValues>
            -1.3167718052864075e-01 5.9923189878463745e-01</leafValues></_>
        <_>
          <internalNodes>
            0 -1 154 1.8332096806261688e-04</internalNodes>
          <leafValues>
            -1.0145052522420883e-01 8.3099222183227539e-01</leafValues></_>
        <_>
          <internalNodes>
            0 -1 38 -1.5274005709215999e-03</internalNodes>
          <leafValues>
            6.3778007030487061e-01 -1.2599129974842072e-01</leafValues></_>
        <_>
          <internalNodes>
            0 -1 395 4.4524490476760548e-06</internalNodes>
          <leafValues>
            -1.7833566665649414e-01 4.1197890043258667e-01</leafValues></_>
        <_>
          <internalNodes>
            0 -1 292 -1.1949520558118820e-03</internalNodes>
          <leafValues>
            5.1345640420913696e-01 -1.6855137050151825e-01</leafValues></_>
        <_>
          <internalNodes>
            0 -1 43 1.0335781574249268e+00</internalNodes>
          <leafValues>
            -6.7047320306301117e-02 8.4388309717178345e-01</leafValues></_>
        <_>
          <internalNodes>
            0 -1 137 -1.0648186504840851e-01</internalNodes>
          <leafValues>
            2.8959256410598755e-01 -3.2507947087287903e-01</leafValues></_>
        <_>
          <internalNodes>
            0 -1 365 -4.4648367911577225e-03</internalNodes>
          <leafValues>
            4.4741106033325195e-01 -2.2574046254158020e-01</leafValues></_>
        <_>
          <internalNodes>
            0 -1 287 -2.3565960582345724e-03</internalNodes>
          <leafValues>
            6.5362137556076050e-01 -1.1561921238899231e-01</leafValues></_></weakClassifiers></_>
    <!-- stage 5 -->
    <_>
      <maxWeakCount>14</maxWeakCount>
      <stageThreshold>-7.0993131399154663e-01</stageThreshold>
      <weakClassifiers>
        <_>
          <internalNodes>
            0 -1 1 8.0566889047622681e-01</internalNodes>
          <leafValues>
            -1.8241041898727417e-01 7.4125874042510986e-01</leafValues></_>
        <_>
          <internalNodes>
            0 -1 21 6.5968608856201172e-01</internalNodes>
          <leafValues>
            -6.3543185591697693e-02 8.7077581882476807e-01</leafValues></_>
        <_>
          <internalNodes>
            0 -1 269 7.3648050427436829e-02</internalNodes>
          <leafValues>
            -1.6482089459896088e-01 7.9593414068222046e-01</leafValues></_>
        <_>
          <internalNodes>
            0 -1 313 -1.1637099087238312e-02</internalNodes>
          <leafValues>
            3.6796993017196655e-01 -1.7479050159454346e-01</leafValues></_>
        <_>
          <internalNodes>
            0 -1 250 -1.1811387594207190e-05</internalNodes>
          <leafValues>
            2.8140634298324585e-01 -2.4219311773777008e-01</leafValues></_>
        <_>
          <internalNodes>
            0 -1 244 -5.4563805460929871e-03</internalNodes>
          <leafValues>
            3.4075841307640076e-01 -2.3629048466682434e-01</leafValues></_>
        <_>
          <internalNodes>
            0 -1 71 9.4217415899038315e-03</internalNodes>
          <leafValues>
            -1.3112847506999969e-01 5.8848935365676880e-01</leafValues></_>
        <_>
          <internalNodes>
            0 -1 76 3.7881140597164631e-03</internalNodes>
          <leafValues>
            1.9637894630432129e-01 -4.7700357437133789e-01</leafValues></_>
        <_>
          <internalNodes>
            0 -1 196 -4.8896141350269318e-02</internalNodes>
          <leafValues>
            6.7783927917480469e-01 -8.9369527995586395e-02</leafValues></_>
        <_>
          <internalNodes>
            0 -1 317 -3.4225516719743609e-04</internalNodes>
          <leafValues>
            -5.5314981937408447e-01 1.2937451899051666e-01</leafValues></_>
        <_>
          <internalNodes>
            0 -1 157 4.0460345335304737e-03</internalNodes>
          <leafValues>
            -1.0497911274433136e-01 6.3007742166519165e-01</leafValues></_>
        <_>
          <internalNodes>
            0 -1 116 -5.7278126478195190e-03</internalNodes>
          <leafValues>
            5.5219918489456177e-01 -1.1726935952901840e-01</leafValues></_>
        <_>
          <internalNodes>
            0 -1 198 4.3625749647617340e-02</internalNodes>
          <leafValues>
            -9.8253481090068817e-02 7.1562629938125610e-01</leafValues></_>
        <_>
          <internalNodes>
            0 -1 107 2.5811512023210526e-03</internalNodes>
          <leafValues>
            1.4882650971412659e-01 -4.9699607491493225e-01</leafValues></_></weakClassifiers></_>
    <!-- stage 6 -->
    <_>
      <maxWeakCount>18</maxWeakCount>
      <stageThreshold>-8.5807365179061890e-01</stageThreshold>
      <weakClassifiers>
        <_>
          <internalNodes>
            0 -1 190 1.5801616013050079e-01</internalNodes>
          <leafValues>
            -1.2037037312984467e-01 7.0634919404983521e-01</leafValues></_>
        <_>
          <internalNodes>
            0 -1 46 3.3733345568180084e-02</internalNodes>
          <leafValues>
            -1.9697754085063934e-01 3.7970042228698730e-01</leafValues></_>
        <_>
          <internalNodes>
            0 -1 187 4.2067188769578934e-02</internalNodes>
          <leafValues>
            -8.6922720074653625e-02 7.7762264013290405e-01</leafValues></_>
        <_>
          <internalNodes>
            0 -1 84 -1.1109880357980728e-01</internalNodes>
          <leafValues>
            3.0791452527046204e-01 -2.2903208434581757e-01</leafValues></_>
        <_>
          <internalNodes>
            0 -1 122 8.1647827755659819e-05</internalNodes>
          <leafValues>
            1.2429726123809814e-01 -4.8562848567962646e-01</leafValues></_>
        <_>
          <internalNodes>
            0 -1 90 -2.8189851436764002e-03</internalNodes>
          <leafValues>
            3.5274645686149597e-01 -2.1198330819606781e-01</leafValues></_>
        <_>
          <internalNodes>
            0 -1 103 7.4978023767471313e-02</internalNodes>
          <leafValues>
            -5.9055659919977188e-02 8.4063959121704102e-01</leafValues></_>
        <_>
          <internalNodes>
            0 -1 24 -2.3831424186937511e-04</internalNodes>
          <leafValues>
            -5.6061679124832153e-01 1.3872949779033661e-01</leafValues></_>
        <_>
          <internalNodes>
            0 -1 310 3.9761194784659892e-05</internalNodes>
          <leafValues>
            1.7723257839679718e-01 -3.7620368599891663e-01</leafValues></_>
        <_>
          <internalNodes>
            0 -1 326 3.7183117819949985e-04</internalNodes>
          <leafValues>
            -2.7633506059646606e-01 3.0207303166389465e-01</leafValues></_>
        <_>
          <internalNodes>
            0 -1 72 -3.0886419117450714e-03</internalNodes>
          <leafValues>
            -6.9834357500076294e-01 1.2604515254497528e-01</leafValues></_>
        <_>
          <internalNodes>
            0 -1 348 4.4591410551220179e-04</internalNodes>
          <leafValues>
            1.2747371196746826e-01 -5.3124493360519409e-01</leafValues></_>
        <_>
          <internalNodes>
            0 -1 10 1.4622218906879425e-02</internalNodes>
          <leafValues>
            -1.9018058478832245e-01 3.9454680681228638e-01</leafValues></_>
        <_>
          <internalNodes>
            0 -1 213 -4.1241645812988281e-03</internalNodes>
          <leafValues>
            4.3338593840599060e-01 -1.8331933021545410e-01</leafValues></_>
        <_>
          <internalNodes>
            0 -1 28 -1.6891993582248688e-03</internalNodes>
          <leafValues>
            3.6588135361671448e-01 -1.8743655085563660e-01</leafValues></_>
        <_>
          <internalNodes>
            0 -1 161 -1.2275576591491699e-04</internalNodes>
          <leafValues>
            2.7305668592453003e-01 -2.5495898723602295e-01</leafValues></_>
        <_>
          <internalNodes>
            0 -1 360 2.6907504070550203e-04</internalNodes>
          <leafValues>
            1.8710638582706451e-01 -3.7669262290000916e-01</leafValues></_>
        <_>
          <internalNodes>
            0 -1 130 -9.8744843853637576e-05</internalNodes>
          <leafValues>
            2.9714196920394897e-01 -2.3731926083564758e-01</leafValues></_></weakClassifiers></_>
    <!-- stage 7 -->
    <_>
      <maxWeakCount>20</maxWeakCount>
      <stageThreshold>-8.7033134698867798e-01</stageThreshold>
      <weakClassifiers>
        <_>
          <internalNodes>
            0 -1 15 1.0492110252380371e+00</internalNodes>
          <leafValues>
            -7.9320110380649567e-02 8.0412369966506958e-01</leafValues></_>
        <_>
          <internalNodes>
            0 -1 96 4.0538225322961807e-02</internalNodes>
          <leafValues>
            -1.4028084278106689e-01 4.1249886155128479e-01</leafValues></_>
        <_>
          <internalNodes>
            0 -1 324 3.0604857951402664e-02</internalNodes>
          <leafValues>
            -9.4540521502494812e-02 8.7545913457870483e-01</leafValues></_>
        <_>
          <internalNodes>
            0 -1 396 2.7597812004387379e-03</internalNodes>
          <leafValues>
            1.3624499738216400e-01 -4.4772350788116455e-01</leafValues></_>
        <_>
          <internalNodes>
            0 -1 68 6.4061656594276428e-02</internalNodes>
          <leafValues>
            -8.5112370550632477e-02 6.0071456432342529e-01</leafValues></_>
        <_>
          <internalNodes>
            0 -1 0 -1.6015812754631042e-02</internalNodes>
          <leafValues>
            -8.7649416923522949e-01 6.3461780548095703e-02</leafValues></_>
        <_>
          <internalNodes>
            0 -1 94 2.1673595532774925e-02</internalNodes>
          <leafValues>
            -1.1388565599918365e-01 5.4681152105331421e-01</leafValues></_>
        <_>
          <internalNodes>
            0 -1 177 1.5387413441203535e-04</internalNodes>
          <leafValues>
            1.4620490372180939e-01 -6.1914485692977905e-01</leafValues></_>
        <_>
          <internalNodes>
            0 -1 125 -3.9447597227990627e-03</internalNodes>
          <leafValues>
            -5.8452922105789185e-01 9.4012945890426636e-02</leafValues></_>
        <_>
          <internalNodes>
            0 -1 65 6.5999911166727543e-03</internalNodes>
          <leafValues>
            -2.3692059516906738e-01 2.5062140822410583e-01</leafValues></_>
        <_>
          <internalNodes>
            0 -1 273 -8.1856199540197849e-04</internalNodes>
          <leafValues>
            3.9866840839385986e-01 -1.6650116443634033e-01</leafValues></_>
        <_>
          <internalNodes>
            0 -1 289 1.0479122865945101e-03</internalNodes>
          <leafValues>
            -2.4886102974414825e-01 2.5864154100418091e-01</leafValues></_>
        <_>
          <internalNodes>
            0 -1 129 2.6305147912353277e-04</internalNodes>
          <leafValues>
            1.9033843278884888e-01 -3.8284614682197571e-01</leafValues></_>
        <_>
          <internalNodes>
            0 -1 263 -3.9071002975106239e-03</internalNodes>
          <leafValues>
            4.0538349747657776e-01 -1.6936655342578888e-01</leafValues></_>
        <_>
          <internalNodes>
            0 -1 164 1.5744712436571717e-04</internalNodes>
          <leafValues>
            2.0560114085674286e-01 -3.1471642851829529e-01</leafValues></_>
        <_>
          <internalNodes>
            0 -1 226 -6.3092514872550964e-02</internalNodes>
          <leafValues>
            5.2733391523361206e-01 -1.2183685600757599e-01</leafValues></_>
        <_>
          <internalNodes>
            0 -1 329 -1.1673455126583576e-02</internalNodes>
          <leafValues>
            3.8099905848503113e-01 -1.7961537837982178e-01</leafValues></_>
        <_>
          <internalNodes>
            0 -1 327 7.8878104686737061e-03</internalNodes>
          <leafValues>
            -2.0773506164550781e-01 3.9104068279266357e-01</leafValues></_>
        <_>
          <internalNodes>
            0 -1 58 -7.7151276171207428e-02</internalNodes>
          <leafValues>
            2.7391105890274048e-01 -2.3022919893264771e-01</leafValues></_>
        <_>
          <internalNodes>
            0 -1 288 1.3555660843849182e-02</internalNodes>
          <leafValues>
            -1.7978969216346741e-01 5.6637996435165405e-01</leafValues></_></weakClassifiers></_>
    <!-- stage 8 -->
    <_>
      <maxWeakCount>20</maxWeakCount>
      <stageThreshold>-6.3261812925338745e-01</stageThreshold>
      <weakClassifiers>
        <_>
          <internalNodes>
            0 -1 8 1.0842499732971191e+00</internalNodes>
          <leafValues>
            -8.0000003799796104e-03 7.0666664838790894e-01</leafValues></_>
        <_>
          <internalNodes>
            0 -1 300 4.4028320189681835e-06</internalNodes>
          <leafValues>
            -1.6838406026363373e-01 3.4671300649642944e-01</leafValues></_>
        <_>
          <internalNodes>
            0 -1 201 -7.1904687210917473e-03</internalNodes>
          <leafValues>
            5.4670113325119019e-01 -1.2233848869800568e-01</leafValues></_>
        <_>
          <internalNodes>
            0 -1 376 -2.4406353011727333e-02</internalNodes>
          <leafValues>
            -4.7020703554153442e-01 1.3202311098575592e-01</leafValues></_>
        <_>
          <internalNodes>
            0 -1 370 4.5752185542369261e-06</internalNodes>
          <leafValues>
            -2.2124668955802917e-01 3.0640867352485657e-01</leafValues></_>
        <_>
          <internalNodes>
            0 -1 387 2.0393596962094307e-02</internalNodes>
          <leafValues>
            1.7407344281673431e-01 -5.4396748542785645e-01</leafValues></_>
        <_>
          <internalNodes>
            0 -1 384 -4.7426610763068311e-06</internalNodes>
          <leafValues>
            3.0645933747291565e-01 -2.4312116205692291e-01</leafValues></_>
        <_>
          <internalNodes>
            0 -1 330 -5.6621975090820342e-06</internalNodes>
          <leafValues>
            3.0548515915870667e-01 -2.0322041213512421e-01</leafValues></_>
        <_>
          <internalNodes>
            0 -1 18 4.8872600018512458e-05</internalNodes>
          <leafValues>
            1.9038470089435577e-01 -3.5965022444725037e-01</leafValues></_>
        <_>
          <internalNodes>
            0 -1 343 -1.0256567038595676e-03</internalNodes>
          <leafValues>
            3.4290060400962830e-01 -2.0676493644714355e-01</leafValues></_>
        <_>
          <internalNodes>
            0 -1 221 1.1487531992315780e-05</internalNodes>
          <leafValues>
            -1.9242595136165619e-01 3.5697105526924133e-01</leafValues></_>
        <_>
          <internalNodes>
            0 -1 7 2.6759721338748932e-02</internalNodes>
          <leafValues>
            -2.3785993456840515e-01 3.1364786624908447e-01</leafValues></_>
        <_>
          <internalNodes>
            0 -1 223 1.2342281639575958e-01</internalNodes>
          <leafValues>
            -1.2016128748655319e-01 5.3392118215560913e-01</leafValues></_>
        <_>
          <internalNodes>
            0 -1 400 -4.4028320189681835e-06</internalNodes>
          <leafValues>
            2.9401254653930664e-01 -2.1516864001750946e-01</leafValues></_>
        <_>
          <internalNodes>
            0 -1 210 8.9595653116703033e-04</internalNodes>
          <leafValues>
            -1.9005203247070312e-01 3.3700698614120483e-01</leafValues></_>
        <_>
          <internalNodes>
            0 -1 123 6.9412740413099527e-04</internalNodes>
          <leafValues>
            1.0226013511419296e-01 -6.1488628387451172e-01</leafValues></_>
        <_>
          <internalNodes>
            0 -1 98 -1.8421213608235121e-03</internalNodes>
          <leafValues>
            3.6766961216926575e-01 -1.6590511798858643e-01</leafValues></_>
        <_>
          <internalNodes>
            0 -1 217 -1.2650629287236370e-05</internalNodes>
          <leafValues>
            2.6101681590080261e-01 -2.4113610386848450e-01</leafValues></_>
        <_>
          <internalNodes>
            0 -1 340 5.7821243899525143e-06</internalNodes>
          <leafValues>
            -1.9975425302982330e-01 3.3482491970062256e-01</leafValues></_>
        <_>
          <internalNodes>
            0 -1 73 1.8801868427544832e-03</internalNodes>
          <leafValues>
            1.2088987976312637e-01 -5.1106435060501099e-01</leafValues></_></weakClassifiers></_>
    <!-- stage 9 -->
    <_>
      <maxWeakCount>20</maxWeakCount>
      <stageThreshold>-7.9773396253585815e-01</stageThreshold>
      <weakClassifiers>
        <_>
          <internalNodes>
            0 -1 369 -2.9200337827205658e-02</internalNodes>
          <leafValues>
            -3.7234041094779968e-01 2.3876404762268066e-01</leafValues></_>
        <_>
          <internalNodes>
            0 -1 200 -2.2731535136699677e-03</internalNodes>
          <leafValues>
            4.9078029394149780e-01 -1.2456578016281128e-01</leafValues></_>
        <_>
          <internalNodes>
            0 -1 336 2.0174536854028702e-02</internalNodes>
          <leafValues>
            -8.8233560323715210e-02 5.7415765523910522e-01</leafValues></_>
        <_>
          <internalNodes>
            0 -1 341 -1.8988142255693674e-03</internalNodes>
          <leafValues>
            3.9188733696937561e-01 -1.6262416541576385e-01</leafValues></_>
        <_>
          <internalNodes>
            0 -1 314 -7.1969290729612112e-04</internalNodes>
          <leafValues>
            3.0974745750427246e-01 -1.9850568473339081e-01</leafValues></_>
        <_>
          <internalNodes>
            0 -1 104 -6.0117627072031610e-06</internalNodes>
          <leafValues>
            2.8757604956626892e-01 -1.8544739484786987e-01</leafValues></_>
        <_>
          <internalNodes>
            0 -1 92 -1.3139769434928894e-03</internalNodes>
          <leafValues>
            2.8840118646621704e-01 -2.1453642845153809e-01</leafValues></_>
        <_>
          <internalNodes>
            0 -1 19 1.4396947808563709e-03</internalNodes>
          <leafValues>
            -1.6228178143501282e-01 3.9993187785148621e-01</leafValues></_>
        <_>
          <internalNodes>
            0 -1 214 1.7624386237002909e-04</internalNodes>
          <leafValues>
            -1.6637444496154785e-01 3.2640498876571655e-01</leafValues></_>
        <_>
          <internalNodes>
            0 -1 114 -4.8745842650532722e-04</internalNodes>
          <leafValues>
            4.6581098437309265e-01 -1.2878431379795074e-01</leafValues></_>
        <_>
          <internalNodes>
            0 -1 170 1.3510611839592457e-02</internalNodes>
          <leafValues>
            -7.3403157293796539e-02 6.3892841339111328e-01</leafValues></_>
        <_>
          <internalNodes>
            0 -1 298 -4.8448800953337923e-06</internalNodes>
          <leafValues>
            2.8641620278358459e-01 -2.1578308939933777e-01</leafValues></_>
        <_>
          <internalNodes>
            0 -1 228 4.3514551362022758e-04</internalNodes>
          <leafValues>
            -1.4239925146102905e-01 3.9356118440628052e-01</leafValues></_>
        <_>
          <internalNodes>
            0 -1 236 4.1110455058515072e-03</internalNodes>
          <leafValues>
            -1.1603449285030365e-01 4.6344795823097229e-01</leafValues></_>
        <_>
          <internalNodes>
            0 -1 338 5.7438201110926457e-06</internalNodes>
          <leafValues>
            -2.5063717365264893e-01 2.4582125246524811e-01</leafValues></_>
        <_>
          <internalNodes>
            0 -1 281 -7.3874497320502996e-04</internalNodes>
          <leafValues>
            3.8342508673667908e-01 -1.6510985791683197e-01</leafValues></_>
        <_>
          <internalNodes>
            0 -1 282 -1.7642225138843060e-03</internalNodes>
          <leafValues>
            4.3402731418609619e-01 -1.5508520603179932e-01</leafValues></_>
        <_>
          <internalNodes>
            0 -1 286 -1.3561319792643189e-04</internalNodes>
          <leafValues>
            3.7680062651634216e-01 -1.4871531724929810e-01</leafValues></_>
        <_>
          <internalNodes>
            0 -1 237 -1.8028146587312222e-03</internalNodes>
          <leafValues>
            -4.8451992869377136e-01 1.4041522145271301e-01</leafValues></_>
        <_>
          <internalNodes>
            0 -1 87 -1.7778505571186543e-04</internalNodes>
          <leafValues>
            2.8581222891807556e-01 -2.1946355700492859e-01</leafValues></_></weakClassifiers></_>
    <!-- stage 10 -->
    <_>
      <maxWeakCount>20</maxWeakCount>
      <stageThreshold>-7.0707476139068604e-01</stageThreshold>
      <weakClassifiers>
        <_>
          <internalNodes>
            0 -1 79 9.2595207691192627e-01</internalNodes>
          <leafValues>
            -6.1583578586578369e-02 6.5137612819671631e-01</leafValues></_>
        <_>
          <internalNodes>
            0 -1 148 7.6920628547668457e-02</internalNodes>
          <leafValues>
            -4.5920848846435547e-02 8.3400094509124756e-01</leafValues></_>
        <_>
          <internalNodes>
            0 -1 100 3.5059571266174316e-02</internalNodes>
          <leafValues>
            -1.5276545286178589e-01 4.1831094026565552e-01</leafValues></_>
        <_>
          <internalNodes>
            0 -1 182 -1.3288469612598419e-01</internalNodes>
          <leafValues>
            4.5060014724731445e-01 -1.7008361220359802e-01</leafValues></_>
        <_>
          <internalNodes>
            0 -1 118 3.0641008168458939e-02</internalNodes>
          <leafValues>
            -4.3764032423496246e-02 7.6842069625854492e-01</leafValues></_>
        <_>
          <internalNodes>
            0 -1 347 6.9514906499534845e-04</internalNodes>
          <leafValues>
            1.0704941302537918e-01 -4.7061261534690857e-01</leafValues></_>
        <_>
          <internalNodes>
            0 -1 202 -1.1336831375956535e-02</internalNodes>
          <leafValues>
            3.8513892889022827e-01 -1.1890798062086105e-01</leafValues></_>
        <_>
          <internalNodes>
            0 -1 156 -1.1311311274766922e-02</internalNodes>
          <leafValues>
            4.3310308456420898e-01 -8.9857093989849091e-02</leafValues></_>
        <_>
          <internalNodes>
            0 -1 93 -2.8212493634782732e-04</internalNodes>
          <leafValues>
            -5.5885595083236694e-01 8.6637265980243683e-02</leafValues></_>
        <_>
          <internalNodes>
            0 -1 297 -3.8092071190476418e-04</internalNodes>
          <leafValues>
            -3.3978822827339172e-01 1.3515666127204895e-01</leafValues></_>
        <_>
          <internalNodes>
            0 -1 293 -6.2399008311331272e-04</internalNodes>
          <leafValues>
            2.8263470530509949e-01 -2.0574547350406647e-01</leafValues></_>
        <_>
          <internalNodes>
            0 -1 267 1.9334841519594193e-02</internalNodes>
          <leafValues>
            -6.7760080099105835e-02 6.7530494928359985e-01</leafValues></_>
        <_>
          <internalNodes>
            0 -1 159 3.4805499017238617e-02</internalNodes>
          <leafValues>
            -8.4623545408248901e-02 5.4553014039993286e-01</leafValues></_>
        <_>
          <internalNodes>
            0 -1 251 -4.9687200225889683e-04</internalNodes>
          <leafValues>
            3.0805426836013794e-01 -1.8974319100379944e-01</leafValues></_>
        <_>
          <internalNodes>
            0 -1 316 7.4703857535496354e-05</internalNodes>
          <leafValues>
            1.7300885915756226e-01 -3.4325560927391052e-01</leafValues></_>
        <_>
          <internalNodes>
            0 -1 325 3.6977501586079597e-03</internalNodes>
          <leafValues>
            -8.7732374668121338e-02 6.7314511537551880e-01</leafValues></_>
        <_>
          <internalNodes>
            0 -1 39 -5.6708790361881256e-02</internalNodes>
          <leafValues>
            -9.4862627983093262e-01 7.1293398737907410e-02</leafValues></_>
        <_>
          <internalNodes>
            0 -1 262 4.1801475163083524e-05</internalNodes>
          <leafValues>
            -1.7871417105197906e-01 3.3474457263946533e-01</leafValues></_>
        <_>
          <internalNodes>
            0 -1 4 2.7221217169426382e-04</internalNodes>
          <leafValues>
            1.2167966365814209e-01 -5.0917327404022217e-01</leafValues></_>
        <_>
          <internalNodes>
            0 -1 235 -6.6054810304194689e-04</internalNodes>
          <leafValues>
            -5.5035686492919922e-01 8.8605694472789764e-02</leafValues></_></weakClassifiers></_>
    <!-- stage 11 -->
    <_>
      <maxWeakCount>23</maxWeakCount>
      <stageThreshold>-6.9487178325653076e-01</stageThreshold>
      <weakClassifiers>
        <_>
          <internalNodes>
            0 -1 101 4.2527323961257935e-01</internalNodes>
          <leafValues>
            -9.5238098874688148e-03 6.4848482608795166e-01</leafValues></_>
        <_>
          <internalNodes>
            0 -1 133 3.7937842309474945e-02</internalNodes>
          <leafValues>
            -1.5240325033664703e-01 3.4178334474563599e-01</leafValues></_>
        <_>
          <internalNodes>
            0 -1 377 -2.4865704472176731e-04</internalNodes>
          <leafValues>
            4.4519916176795959e-01 -1.5074247121810913e-01</leafValues></_>
        <_>
          <internalNodes>
            0 -1 308 -7.3798131197690964e-03</internalNodes>
          <leafValues>
            4.0257719159126282e-01 -1.4689135551452637e-01</leafValues></_>
        <_>
          <internalNodes>
            0 -1 99 -3.1953284633345902e-04</internalNodes>
          <leafValues>
            4.0348500013351440e-01 -1.3918116688728333e-01</leafValues></_>
        <_>
          <internalNodes>
            0 -1 206 -9.4530275091528893e-03</internalNodes>
          <leafValues>
            3.2198533415794373e-01 -1.8429143726825714e-01</leafValues></_>
        <_>
          <internalNodes>
            0 -1 135 -1.2477966956794262e-02</internalNodes>
          <leafValues>
            4.6492943167686462e-01 -1.0947046428918839e-01</leafValues></_>
        <_>
          <internalNodes>
            0 -1 59 2.4150358512997627e-02</internalNodes>
          <leafValues>
            -1.4301493763923645e-01 3.7842407822608948e-01</leafValues></_>
        <_>
          <internalNodes>
            0 -1 285 -4.6716697514057159e-02</internalNodes>
          <leafValues>
            6.8033593893051147e-01 -8.9453615248203278e-02</leafValues></_>
        <_>
          <internalNodes>
            0 -1 47 -5.2600148592318874e-06</internalNodes>
          <leafValues>
            3.3691602945327759e-01 -1.5993559360504150e-01</leafValues></_>
        <_>
          <internalNodes>
            0 -1 134 -5.2097866500844248e-06</internalNodes>
          <leafValues>
            2.6884284615516663e-01 -2.0979808270931244e-01</leafValues></_>
        <_>
          <internalNodes>
            0 -1 131 -7.2731156251393259e-05</internalNodes>
          <leafValues>
            -2.9686877131462097e-01 1.9887571036815643e-01</leafValues></_>
        <_>
          <internalNodes>
            0 -1 50 -1.7234655097126961e-02</internalNodes>
          <leafValues>
            3.7971991300582886e-01 -1.4218401908874512e-01</leafValues></_>
        <_>
          <internalNodes>
            0 -1 152 5.0962008535861969e-02</internalNodes>
          <leafValues>
            -1.0368472337722778e-01 4.3944582343101501e-01</leafValues></_>
        <_>
          <internalNodes>
            0 -1 180 7.5431494042277336e-04</internalNodes>
          <leafValues>
            -1.3814875483512878e-01 4.6534514427185059e-01</leafValues></_>
        <_>
          <internalNodes>
            0 -1 346 6.2647731974720955e-03</internalNodes>
          <leafValues>
            -6.3340760767459869e-02 8.8368046283721924e-01</leafValues></_>
        <_>
          <internalNodes>
            0 -1 240 1.5399241447448730e-01</internalNodes>
          <leafValues>
            -5.0379637628793716e-02 8.1402200460433960e-01</leafValues></_>
        <_>
          <internalNodes>
            0 -1 354 3.6309257848188281e-04</internalNodes>
          <leafValues>
            -1.3440701365470886e-01 3.9652720093727112e-01</leafValues></_>
        <_>
          <internalNodes>
            0 -1 266 -8.6220391094684601e-03</internalNodes>
          <leafValues>
            2.9028388857841492e-01 -2.0491053164005280e-01</leafValues></_>
        <_>
          <internalNodes>
            0 -1 303 -1.1554069817066193e-02</internalNodes>
          <leafValues>
            3.7240841984748840e-01 -1.9188310205936432e-01</leafValues></_>
        <_>
          <internalNodes>
            0 -1 389 -1.9059294834733009e-02</internalNodes>
          <leafValues>
            -6.7187720537185669e-01 8.4119461476802826e-02</leafValues></_>
        <_>
          <internalNodes>
            0 -1 249 -5.1266705850139260e-04</internalNodes>
          <leafValues>
            6.4467394351959229e-01 -8.3177834749221802e-02</leafValues></_>
        <_>
          <internalNodes>
            0 -1 363 -9.4980350695550442e-04</internalNodes>
          <leafValues>
            3.0556252598762512e-01 -1.7457398772239685e-01</leafValues></_></weakClassifiers></_>
    <!-- stage 12 -->
    <_>
      <maxWeakCount>27</maxWeakCount>
      <stageThreshold>-6.9637393951416016e-01</stageThreshold>
      <weakClassifiers>
        <_>
          <internalNodes>
            0 -1 220 1.3101714849472046e-01</internalNodes>
          <leafValues>
            -8.3565460518002510e-03 5.8241760730743408e-01</leafValues></_>
        <_>
          <internalNodes>
            0 -1 345 -6.3832905143499374e-03</internalNodes>
          <leafValues>
            3.6564835906028748e-01 -1.2434491515159607e-01</leafValues></_>
        <_>
          <internalNodes>
            0 -1 390 1.4285107143223286e-02</internalNodes>
          <leafValues>
            6.2994286417961121e-02 -5.8050495386123657e-01</leafValues></_>
        <_>
          <internalNodes>
            0 -1 252 -6.5930164419114590e-04</internalNodes>
          <leafValues>
            3.1131801009178162e-01 -1.5063263475894928e-01</leafValues></_>
        <_>
          <internalNodes>
            0 -1 351 5.2164714361424558e-06</internalNodes>
          <leafValues>
            -1.5556511282920837e-01 2.8236645460128784e-01</leafValues></_>
        <_>
          <internalNodes>
            0 -1 77 -5.9622656553983688e-03</internalNodes>
          <leafValues>
            -5.5610972642898560e-01 6.7530877888202667e-02</leafValues></_>
        <_>
          <internalNodes>
            0 -1 41 1.4761257916688919e-02</internalNodes>
          <leafValues>
            -1.8260270357131958e-01 2.5958511233329773e-01</leafValues></_>
        <_>
          <internalNodes>
            0 -1 121 1.4578722766600549e-04</internalNodes>
          <leafValues>
            1.4114630222320557e-01 -2.8889486193656921e-01</leafValues></_>
        <_>
          <internalNodes>
            0 -1 140 -4.1755989193916321e-02</internalNodes>
          <leafValues>
            4.8403415083885193e-01 -1.0403732955455780e-01</leafValues></_>
        <_>
          <internalNodes>
            0 -1 270 -6.0505926740006544e-06</internalNodes>
          <leafValues>
            2.5838610529899597e-01 -1.7406661808490753e-01</leafValues></_>
        <_>
          <internalNodes>
            0 -1 109 2.3412243463099003e-03</internalNodes>
          <leafValues>
            -9.2929929494857788e-02 5.1234084367752075e-01</leafValues></_>
        <_>
          <internalNodes>
            0 -1 188 -3.1772229820489883e-02</internalNodes>
          <leafValues>
            3.4773790836334229e-01 -1.3674071431159973e-01</leafValues></_>
        <_>
          <internalNodes>
            0 -1 356 -2.0831819711020216e-05</internalNodes>
          <leafValues>
            2.5509148836135864e-01 -2.0357209444046021e-01</leafValues></_>
        <_>
          <internalNodes>
            0 -1 311 8.7418724433518946e-05</internalNodes>
          <leafValues>
            1.3279987871646881e-01 -3.9833620190620422e-01</leafValues></_>
        <_>
          <internalNodes>
            0 -1 193 -1.0358529398217797e-03</internalNodes>
          <leafValues>
            -3.8040584325790405e-01 1.1179847270250320e-01</leafValues></_>
        <_>
          <internalNodes>
            0 -1 367 4.8389069888798986e-06</internalNodes>
          <leafValues>
            -1.5655733644962311e-01 3.0404454469680786e-01</leafValues></_>
        <_>
          <internalNodes>
            0 -1 358 -1.7140114214271307e-03</internalNodes>
          <leafValues>
            -4.1749796271324158e-01 1.1418966948986053e-01</leafValues></_>
        <_>
          <internalNodes>
            0 -1 353 5.3096351621206850e-05</internalNodes>
          <leafValues>
            1.8498899042606354e-01 -2.7918353676795959e-01</leafValues></_>
        <_>
          <internalNodes>
            0 -1 174 1.7388547712471336e-04</internalNodes>
          <leafValues>
            -1.6318102180957794e-01 2.9728806018829346e-01</leafValues></_>
        <_>
          <internalNodes>
            0 -1 171 4.2743654921650887e-03</internalNodes>
          <leafValues>
            -1.5387883782386780e-01 4.3427368998527527e-01</leafValues></_>
        <_>
          <internalNodes>
            0 -1 158 1.7001089453697205e-01</internalNodes>
          <leafValues>
            -6.9062210619449615e-02 6.9877612590789795e-01</leafValues></_>
        <_>
          <internalNodes>
            0 -1 203 1.8787994980812073e-02</internalNodes>
          <leafValues>
            -9.0490490198135376e-02 5.1276826858520508e-01</leafValues></_>
        <_>
          <internalNodes>
            0 -1 275 9.6749363365233876e-06</internalNodes>
          <leafValues>
            -1.9761836528778076e-01 2.6322585344314575e-01</leafValues></_>
        <_>
          <internalNodes>
            0 -1 291 1.4764672145247459e-02</internalNodes>
          <leafValues>
            -5.5515348911285400e-02 8.6843788623809814e-01</leafValues></_>
        <_>
          <internalNodes>
            0 -1 344 -1.1342232115566730e-02</internalNodes>
          <leafValues>
            5.4030460119247437e-01 -8.1490658223628998e-02</leafValues></_>
        <_>
          <internalNodes>
            0 -1 119 5.7438201110926457e-06</internalNodes>
          <leafValues>
            -1.7613245546817780e-01 2.8584781289100647e-01</leafValues></_>
        <_>
          <internalNodes>
            0 -1 132 -3.0125300399959087e-03</internalNodes>
          <leafValues>
            -5.7577180862426758e-01 9.9418722093105316e-02</leafValues></_></weakClassifiers></_>
    <!-- stage 13 -->
    <_>
      <maxWeakCount>22</maxWeakCount>
      <stageThreshold>-5.9330075979232788e-01</stageThreshold>
      <weakClassifiers>
        <_>
          <internalNodes>
            0 -1 328 3.7763739237561822e-04</internalNodes>
          <leafValues>
            2.8502416610717773e-01 -2.7598565816879272e-01</leafValues></_>
        <_>
          <internalNodes>
            0 -1 60 -2.1316149830818176e-01</internalNodes>
          <leafValues>
            3.4041747450828552e-01 -1.9760715961456299e-01</leafValues></_>
        <_>
          <internalNodes>
            0 -1 52 6.6776901483535767e-02</internalNodes>
          <leafValues>
            -1.1592566967010498e-01 5.0667893886566162e-01</leafValues></_>
        <_>
          <internalNodes>
            0 -1 393 9.7723168437369168e-05</internalNodes>
          <leafValues>
            1.2164173275232315e-01 -4.4147825241088867e-01</leafValues></_>
        <_>
          <internalNodes>
            0 -1 29 -3.7355506792664528e-03</internalNodes>
          <leafValues>
            -6.8738698959350586e-01 9.9394135177135468e-02</leafValues></_>
        <_>
          <internalNodes>
            0 -1 20 -2.6518881320953369e-02</internalNodes>
          <leafValues>
            2.6826682686805725e-01 -1.8987748026847839e-01</leafValues></_>
        <_>
          <internalNodes>
            0 -1 108 -7.9912776127457619e-03</internalNodes>
          <leafValues>
            2.6296979188919067e-01 -2.7395242452621460e-01</leafValues></_>
        <_>
          <internalNodes>
            0 -1 17 -8.0069880932569504e-03</internalNodes>
          <leafValues>
            -5.4730325937271118e-01 1.0100477933883667e-01</leafValues></_>
        <_>
          <internalNodes>
            0 -1 146 6.5128743648529053e-02</internalNodes>
          <leafValues>
            -1.5407258272171021e-01 3.7841340899467468e-01</leafValues></_>
        <_>
          <internalNodes>
            0 -1 191 2.4981813132762909e-01</internalNodes>
          <leafValues>
            -7.7105127274990082e-02 5.4557090997695923e-01</leafValues></_>
        <_>
          <internalNodes>
            0 -1 172 -4.8739902675151825e-02</internalNodes>
          <leafValues>
            6.4838427305221558e-01 -8.5508540272712708e-02</leafValues></_>
        <_>
          <internalNodes>
            0 -1 234 -1.0611782781779766e-03</internalNodes>
          <leafValues>
            -6.8996095657348633e-01 8.2265466451644897e-02</leafValues></_>
        <_>
          <internalNodes>
            0 -1 3 6.5271300263702869e-04</internalNodes>
          <leafValues>
            -1.9804586470127106e-01 2.5378096103668213e-01</leafValues></_>
        <_>
          <internalNodes>
            0 -1 246 -2.6711884886026382e-02</internalNodes>
          <leafValues>
            6.4074081182479858e-01 -7.7699244022369385e-02</leafValues></_>
        <_>
          <internalNodes>
            0 -1 141 -2.5880819885060191e-04</internalNodes>
          <leafValues>
            2.8269806504249573e-01 -1.7774434387683868e-01</leafValues></_>
        <_>
          <internalNodes>
            0 -1 233 -1.5048386994749308e-03</internalNodes>
          <leafValues>
            3.7435269355773926e-01 -1.3698726892471313e-01</leafValues></_>
        <_>
          <internalNodes>
            0 -1 352 -1.6798363503767177e-05</internalNodes>
          <leafValues>
            2.5882986187934875e-01 -2.1073657274246216e-01</leafValues></_>
        <_>
          <internalNodes>
            0 -1 113 1.1952479835599661e-03</internalNodes>
          <leafValues>
            1.7870172858238220e-01 -3.0664151906967163e-01</leafValues></_>
        <_>
          <internalNodes>
            0 -1 153 3.0306411645142362e-05</internalNodes>
          <leafValues>
            1.9270831346511841e-01 -2.4153542518615723e-01</leafValues></_>
        <_>
          <internalNodes>
            0 -1 83 6.2761631852481514e-05</internalNodes>
          <leafValues>
            1.7350405454635620e-01 -2.9496788978576660e-01</leafValues></_>
        <_>
          <internalNodes>
            0 -1 242 -2.6049101725220680e-03</internalNodes>
          <leafValues>
            -5.7465523481369019e-01 9.4394616782665253e-02</leafValues></_>
        <_>
          <internalNodes>
            0 -1 160 -1.4772198628634214e-03</internalNodes>
          <leafValues>
            2.5679817795753479e-01 -2.0223511755466461e-01</leafValues></_></weakClassifiers></_>
    <!-- stage 14 -->
    <_>
      <maxWeakCount>24</maxWeakCount>
      <stageThreshold>-6.4625024795532227e-01</stageThreshold>
      <weakClassifiers>
        <_>
          <internalNodes>
            0 -1 22 8.9904954656958580e-03</internalNodes>
          <leafValues>
            -3.0211480334401131e-02 5.0420171022415161e-01</leafValues></_>
        <_>
          <internalNodes>
            0 -1 149 -9.1385986888781190e-04</internalNodes>
          <leafValues>
            3.7396544218063354e-01 -1.2726829946041107e-01</leafValues></_>
        <_>
          <internalNodes>
            0 -1 211 1.6780290007591248e-01</internalNodes>
          <leafValues>
            -1.2143780291080475e-01 4.8205953836441040e-01</leafValues></_>
        <_>
          <internalNodes>
            0 -1 183 -8.0297142267227173e-02</internalNodes>
          <leafValues>
            2.2891020774841309e-01 -2.3742313683032990e-01</leafValues></_>
        <_>
          <internalNodes>
            0 -1 294 -1.3691534986719489e-03</internalNodes>
          <leafValues>
            4.3406218290328979e-01 -1.1693621426820755e-01</leafValues></_>
        <_>
          <internalNodes>
            0 -1 45 -4.4524490476760548e-06</internalNodes>
          <leafValues>
            2.3505404591560364e-01 -1.8622194230556488e-01</leafValues></_>
        <_>
          <internalNodes>
            0 -1 232 1.2129881361033767e-04</internalNodes>
          <leafValues>
            -1.2710741162300110e-01 3.2302051782608032e-01</leafValues></_>
        <_>
          <internalNodes>
            0 -1 239 2.9110741615295410e-01</internalNodes>
          <leafValues>
            -7.0325620472431183e-02 6.9517874717712402e-01</leafValues></_>
        <_>
          <internalNodes>
            0 -1 322 -1.7548417963553220e-04</internalNodes>
          <leafValues>
            -2.1456295251846313e-01 2.4693313241004944e-01</leafValues></_>
        <_>
          <internalNodes>
            0 -1 368 -1.1406874284148216e-02</internalNodes>
          <leafValues>
            4.6895429491996765e-01 -1.4243373274803162e-01</leafValues></_>
        <_>
          <internalNodes>
            0 -1 359 -1.2968253577128053e-04</internalNodes>
          <leafValues>
            2.8491774201393127e-01 -1.8413043022155762e-01</leafValues></_>
        <_>
          <internalNodes>
            0 -1 379 1.2006577104330063e-02</internalNodes>
          <leafValues>
            1.5766075253486633e-01 -4.0628069639205933e-01</leafValues></_>
        <_>
          <internalNodes>
            0 -1 373 4.5752185542369261e-06</internalNodes>
          <leafValues>
            -2.3402017354965210e-01 2.4768209457397461e-01</leafValues></_>
        <_>
          <internalNodes>
            0 -1 115 1.1721379123628139e-03</internalNodes>
          <leafValues>
            -1.5130466222763062e-01 3.5087433457374573e-01</leafValues></_>
        <_>
          <internalNodes>
            0 -1 335 1.8147647380828857e-02</internalNodes>
          <leafValues>
            -9.7212918102741241e-02 4.8927181959152222e-01</leafValues></_>
        <_>
          <internalNodes>
            0 -1 230 3.2167420722544193e-03</internalNodes>
          <leafValues>
            -1.6716501116752625e-01 3.3024013042449951e-01</leafValues></_>
        <_>
          <internalNodes>
            0 -1 173 -5.2005589168402366e-06</internalNodes>
          <leafValues>
            2.8446310758590698e-01 -2.0855417847633362e-01</leafValues></_>
        <_>
          <internalNodes>
            0 -1 37 1.2737948447465897e-02</internalNodes>
          <leafValues>
            1.0650520771741867e-01 -8.0583041906356812e-01</leafValues></_>
        <_>
          <internalNodes>
            0 -1 277 -3.5139992833137512e-02</internalNodes>
          <leafValues>
            3.4712988138198853e-01 -1.7581339180469513e-01</leafValues></_>
        <_>
          <internalNodes>
            0 -1 397 -3.7756399251520634e-03</internalNodes>
          <leafValues>
            -5.3384518623352051e-01 1.0353896021842957e-01</leafValues></_>
        <_>
          <internalNodes>
            0 -1 349 -1.0459913937665988e-05</internalNodes>
          <leafValues>
            2.2353334724903107e-01 -2.3637090623378754e-01</leafValues></_>
        <_>
          <internalNodes>
            0 -1 208 1.5748058212921023e-03</internalNodes>
          <leafValues>
            1.3222156465053558e-01 -4.2390817403793335e-01</leafValues></_>
        <_>
          <internalNodes>
            0 -1 350 1.0642058914527297e-03</internalNodes>
          <leafValues>
            -1.1828070878982544e-01 4.9455204606056213e-01</leafValues></_>
        <_>
          <internalNodes>
            0 -1 321 -1.2471397640183568e-03</internalNodes>
          <leafValues>
            5.5641055107116699e-01 -7.1353942155838013e-02</leafValues></_></weakClassifiers></_>
    <!-- stage 15 -->
    <_>
      <maxWeakCount>29</maxWeakCount>
      <stageThreshold>-7.0069718360900879e-01</stageThreshold>
      <weakClassifiers>
        <_>
          <internalNodes>
            0 -1 279 -6.6385418176651001e-02</internalNodes>
          <leafValues>
            3.6018958687782288e-01 -1.0878661274909973e-01</leafValues></_>
        <_>
          <internalNodes>
            0 -1 48 -1.0639350861310959e-02</internalNodes>
          <leafValues>
            3.8497209548950195e-01 -1.2411531060934067e-01</leafValues></_>
        <_>
          <internalNodes>
            0 -1 89 -2.4850130081176758e-02</internalNodes>
          <leafValues>
            4.4827342033386230e-01 -9.5819264650344849e-02</leafValues></_>
        <_>
          <internalNodes>
            0 -1 62 -2.9044983908534050e-02</internalNodes>
          <leafValues>
            4.2264345288276672e-01 -1.3549350202083588e-01</leafValues></_>
        <_>
          <internalNodes>
            0 -1 97 -5.3999830037355423e-02</internalNodes>
          <leafValues>
            5.2963292598724365e-01 -9.1827005147933960e-02</leafValues></_>
        <_>
          <internalNodes>
            0 -1 42 6.5347647666931152e-01</internalNodes>
          <leafValues>
            -7.3939934372901917e-02 7.4351233243942261e-01</leafValues></_>
        <_>
          <internalNodes>
            0 -1 66 2.6785808801651001e-01</internalNodes>
          <leafValues>
            -6.0251481831073761e-02 5.9580129384994507e-01</leafValues></_>
        <_>
          <internalNodes>
            0 -1 382 -1.0939969797618687e-05</internalNodes>
          <leafValues>
            2.3421303927898407e-01 -1.8599063158035278e-01</leafValues></_>
        <_>
          <internalNodes>
            0 -1 334 -2.5117097538895905e-04</internalNodes>
          <leafValues>
            2.9918414354324341e-01 -1.3518096506595612e-01</leafValues></_>
        <_>
          <internalNodes>
            0 -1 229 6.8150460720062256e-05</internalNodes>
          <leafValues>
            1.3132533431053162e-01 -3.5735210776329041e-01</leafValues></_>
        <_>
          <internalNodes>
            0 -1 63 5.5603968576178886e-06</internalNodes>
          <leafValues>
            -2.0673023164272308e-01 2.4419416487216949e-01</leafValues></_>
        <_>
          <internalNodes>
            0 -1 75 -8.8131538359448314e-04</internalNodes>
          <leafValues>
            -3.8061088323593140e-01 1.2759737670421600e-01</leafValues></_>
        <_>
          <internalNodes>
            0 -1 91 -1.2128482921980321e-05</internalNodes>
          <leafValues>
            2.3297661542892456e-01 -2.0422425866127014e-01</leafValues></_>
        <_>
          <internalNodes>
            0 -1 331 -2.8965407982468605e-03</internalNodes>
          <leafValues>
            -6.8558514118194580e-01 8.6283452808856964e-02</leafValues></_>
        <_>
          <internalNodes>
            0 -1 61 -2.8983622905798256e-04</internalNodes>
          <leafValues>
            2.3113554716110229e-01 -2.1512411534786224e-01</leafValues></_>
        <_>
          <internalNodes>
            0 -1 361 -2.1212855353951454e-03</internalNodes>
          <leafValues>
            -6.5859544277191162e-01 9.4404943287372589e-02</leafValues></_>
        <_>
          <internalNodes>
            0 -1 296 -6.3014798797667027e-04</internalNodes>
          <leafValues>
            6.5151411294937134e-01 -9.4395540654659271e-02</leafValues></_>
        <_>
          <internalNodes>
            0 -1 9 1.0757815092802048e-02</internalNodes>
          <leafValues>
            -6.8094268441200256e-02 5.4043823480606079e-01</leafValues></_>
        <_>
          <internalNodes>
            0 -1 378 -5.1347019507375080e-06</internalNodes>
          <leafValues>
            2.6842486858367920e-01 -1.9121180474758148e-01</leafValues></_>
        <_>
          <internalNodes>
            0 -1 86 1.0765798651846126e-04</internalNodes>
          <leafValues>
            1.4706383645534515e-01 -3.4602573513984680e-01</leafValues></_>
        <_>
          <internalNodes>
            0 -1 204 5.6241045240312815e-04</internalNodes>
          <leafValues>
            -1.0963181406259537e-01 4.5227995514869690e-01</leafValues></_>
        <_>
          <internalNodes>
            0 -1 305 -7.8316911822184920e-04</internalNodes>
          <leafValues>
            3.6029762029647827e-01 -1.3132260739803314e-01</leafValues></_>
        <_>
          <internalNodes>
            0 -1 112 2.2764837369322777e-02</internalNodes>
          <leafValues>
            -5.9800013899803162e-02 8.5641252994537354e-01</leafValues></_>
        <_>
          <internalNodes>
            0 -1 380 -4.5239581959322095e-04</internalNodes>
          <leafValues>
            2.9477861523628235e-01 -1.6616985201835632e-01</leafValues></_>
        <_>
          <internalNodes>
            0 -1 247 8.9607238769531250e-02</internalNodes>
          <leafValues>
            -5.5725712329149246e-02 8.9004331827163696e-01</leafValues></_>
        <_>
          <internalNodes>
            0 -1 126 1.8404887523502111e-03</internalNodes>
          <leafValues>
            -1.2008879333734512e-01 3.9329957962036133e-01</leafValues></_>
        <_>
          <internalNodes>
            0 -1 111 -7.1761994622647762e-03</internalNodes>
          <leafValues>
            3.4047320485115051e-01 -1.6606040298938751e-01</leafValues></_>
        <_>
          <internalNodes>
            0 -1 256 2.5735362214618362e-05</internalNodes>
          <leafValues>
            -2.0268651843070984e-01 2.6659554243087769e-01</leafValues></_>
        <_>
          <internalNodes>
            0 -1 184 4.7640988486818969e-04</internalNodes>
          <leafValues>
            -1.5867491066455841e-01 3.4023255109786987e-01</leafValues></_></weakClassifiers></_>
    <!-- stage 16 -->
    <_>
      <maxWeakCount>24</maxWeakCount>
      <stageThreshold>-6.6586279869079590e-01</stageThreshold>
      <weakClassifiers>
        <_>
          <internalNodes>
            0 -1 388 -4.4594621285796165e-03</internalNodes>
          <leafValues>
            -3.2258063554763794e-01 2.2408963739871979e-01</leafValues></_>
        <_>
          <internalNodes>
            0 -1 392 -5.9004649519920349e-03</internalNodes>
          <leafValues>
            -5.3934770822525024e-01 8.9392840862274170e-02</leafValues></_>
        <_>
          <internalNodes>
            0 -1 147 2.1195460110902786e-02</internalNodes>
          <leafValues>
            -1.2964880466461182e-01 3.5475298762321472e-01</leafValues></_>
        <_>
          <internalNodes>
            0 -1 145 -2.1148910745978355e-03</internalNodes>
          <leafValues>
            2.5814732909202576e-01 -1.6269680857658386e-01</leafValues></_>
        <_>
          <internalNodes>
            0 -1 12 6.5396921709179878e-03</internalNodes>
          <leafValues>
            -1.4035692811012268e-01 3.8625374436378479e-01</leafValues></_>
        <_>
          <internalNodes>
            0 -1 27 -5.0768079236149788e-03</internalNodes>
          <leafValues>
            -4.9887365102767944e-01 7.8368343412876129e-02</leafValues></_>
        <_>
          <internalNodes>
            0 -1 276 3.4019574522972107e-03</internalNodes>
          <leafValues>
            7.0888482034206390e-02 -6.5760165452957153e-01</leafValues></_>
        <_>
          <internalNodes>
            0 -1 209 7.3402392864227295e-01</internalNodes>
          <leafValues>
            -5.8122027665376663e-02 8.4849709272384644e-01</leafValues></_>
        <_>
          <internalNodes>
            0 -1 299 -4.3046930804848671e-03</internalNodes>
          <leafValues>
            2.3792119324207306e-01 -1.9076220691204071e-01</leafValues></_>
        <_>
          <internalNodes>
            0 -1 258 -1.0654585203155875e-03</internalNodes>
          <leafValues>
            2.9357317090034485e-01 -1.6876770555973053e-01</leafValues></_>
        <_>
          <internalNodes>
            0 -1 31 -1.1795865430030972e-04</internalNodes>
          <leafValues>
            3.2660156488418579e-01 -1.2333144247531891e-01</leafValues></_>
        <_>
          <internalNodes>
            0 -1 55 -1.2593535706400871e-02</internalNodes>
          <leafValues>
            -3.8967597484588623e-01 1.2979115545749664e-01</leafValues></_>
        <_>
          <internalNodes>
            0 -1 189 -2.5047487579286098e-03</internalNodes>
          <leafValues>
            3.3098205924034119e-01 -1.5013627707958221e-01</leafValues></_>
        <_>
          <internalNodes>
            0 -1 253 -2.1646123379468918e-02</internalNodes>
          <leafValues>
            4.6719583868980408e-01 -1.1776143312454224e-01</leafValues></_>
        <_>
          <internalNodes>
            0 -1 69 -2.0589320920407772e-03</internalNodes>
          <leafValues>
            -5.0519794225692749e-01 1.0715541243553162e-01</leafValues></_>
        <_>
          <internalNodes>
            0 -1 231 -1.0668727569282055e-02</internalNodes>
          <leafValues>
            3.3856368064880371e-01 -1.4436115324497223e-01</leafValues></_>
        <_>
          <internalNodes>
            0 -1 168 3.4785820171236992e-03</internalNodes>
          <leafValues>
            -1.9877588748931885e-01 2.6000788807868958e-01</leafValues></_>
        <_>
          <internalNodes>
            0 -1 163 -1.0951906442642212e-02</internalNodes>
          <leafValues>
            3.7978661060333252e-01 -1.5365552902221680e-01</leafValues></_>
        <_>
          <internalNodes>
            0 -1 105 -3.5950324672739953e-05</internalNodes>
          <leafValues>
            -3.5733681917190552e-01 1.8704871833324432e-01</leafValues></_>
        <_>
          <internalNodes>
            0 -1 34 3.5785218642558903e-05</internalNodes>
          <leafValues>
            -1.9193288683891296e-01 2.6100867986679077e-01</leafValues></_>
        <_>
          <internalNodes>
            0 -1 260 5.8678570203483105e-03</internalNodes>
          <leafValues>
            8.0463483929634094e-02 -6.8998718261718750e-01</leafValues></_>
        <_>
          <internalNodes>
            0 -1 364 1.1631048982962966e-04</internalNodes>
          <leafValues>
            1.3672502338886261e-01 -3.3525505661964417e-01</leafValues></_>
        <_>
          <internalNodes>
            0 -1 283 4.6612689038738608e-04</internalNodes>
          <leafValues>
            -9.5417127013206482e-02 5.1738947629928589e-01</leafValues></_>
        <_>
          <internalNodes>
            0 -1 162 1.3815215788781643e-03</internalNodes>
          <leafValues>
            -1.4413344860076904e-01 3.2417941093444824e-01</leafValues></_></weakClassifiers></_>
    <!-- stage 17 -->
    <_>
      <maxWeakCount>28</maxWeakCount>
      <stageThreshold>-7.3241800069808960e-01</stageThreshold>
      <weakClassifiers>
        <_>
          <internalNodes>
            0 -1 5 5.3438344039022923e-03</internalNodes>
          <leafValues>
            -5.1660515367984772e-02 3.5754188895225525e-01</leafValues></_>
        <_>
          <internalNodes>
            0 -1 306 3.8027185946702957e-02</internalNodes>
          <leafValues>
            -1.1152086406946182e-01 3.6420992016792297e-01</leafValues></_>
        <_>
          <internalNodes>
            0 -1 268 1.4192858338356018e-01</internalNodes>
          <leafValues>
            -1.3101290166378021e-01 6.0728555917739868e-01</leafValues></_>
        <_>
          <internalNodes>
            0 -1 224 -6.3267275691032410e-02</internalNodes>
          <leafValues>
            2.0835155248641968e-01 -2.5180011987686157e-01</leafValues></_>
        <_>
          <internalNodes>
            0 -1 257 -4.1237622499465942e-03</internalNodes>
          <leafValues>
            2.5153723359107971e-01 -1.9569186866283417e-01</leafValues></_>
        <_>
          <internalNodes>
            0 -1 371 -4.8459472600370646e-04</internalNodes>
          <leafValues>
            3.8117277622222900e-01 -9.3488067388534546e-02</leafValues></_>
        <_>
          <internalNodes>
            0 -1 243 -4.5458539389073849e-03</internalNodes>
          <leafValues>
            -8.8906508684158325e-01 6.7037008702754974e-02</leafValues></_>
        <_>
          <internalNodes>
            0 -1 106 -3.0368630541488528e-04</internalNodes>
          <leafValues>
            1.5339674055576324e-01 -2.6070201396942139e-01</leafValues></_>
        <_>
          <internalNodes>
            0 -1 120 2.5730007328093052e-03</internalNodes>
          <leafValues>
            -1.4790605008602142e-01 3.1803503632545471e-01</leafValues></_>
        <_>
          <internalNodes>
            0 -1 128 -9.3352273106575012e-03</internalNodes>
          <leafValues>
            -7.1932315826416016e-01 5.5364012718200684e-02</leafValues></_>
        <_>
          <internalNodes>
            0 -1 301 -2.1931121591478586e-03</internalNodes>
          <leafValues>
            4.7615739703178406e-01 -8.7456464767456055e-02</leafValues></_>
        <_>
          <internalNodes>
            0 -1 302 -2.4265614047180861e-04</internalNodes>
          <leafValues>
            2.5842934846878052e-01 -1.8579640984535217e-01</leafValues></_>
        <_>
          <internalNodes>
            0 -1 67 5.4162042215466499e-03</internalNodes>
          <leafValues>
            -1.6291476786136627e-01 2.9277986288070679e-01</leafValues></_>
        <_>
          <internalNodes>
            0 -1 49 -3.7995763123035431e-03</internalNodes>
          <leafValues>
            4.5420718193054199e-01 -1.2523165345191956e-01</leafValues></_>
        <_>
          <internalNodes>
            0 -1 264 1.8893110100179911e-03</internalNodes>
          <leafValues>
            1.2983231246471405e-01 -4.3968245387077332e-01</leafValues></_>
        <_>
          <internalNodes>
            0 -1 339 -2.0571012282744050e-04</internalNodes>
          <leafValues>
            -5.2536970376968384e-01 8.0096125602722168e-02</leafValues></_>
        <_>
          <internalNodes>
            0 -1 272 1.4255593996495008e-03</internalNodes>
          <leafValues>
            -2.2042839229106903e-01 2.0590554177761078e-01</leafValues></_>
        <_>
          <internalNodes>
            0 -1 319 2.1320809610188007e-03</internalNodes>
          <leafValues>
            -1.2048865109682083e-01 4.5777064561843872e-01</leafValues></_>
        <_>
          <internalNodes>
            0 -1 261 -4.9474900588393211e-03</internalNodes>
          <leafValues>
            -6.0614883899688721e-01 9.0743035078048706e-02</leafValues></_>
        <_>
          <internalNodes>
            0 -1 337 -3.5903748124837875e-02</internalNodes>
          <leafValues>
            6.4864319562911987e-01 -7.7287249267101288e-02</leafValues></_>
        <_>
          <internalNodes>
            0 -1 284 4.4072506716474891e-04</internalNodes>
          <leafValues>
            -7.6734095811843872e-02 5.5638206005096436e-01</leafValues></_>
        <_>
          <internalNodes>
            0 -1 150 1.3063426595181227e-03</internalNodes>
          <leafValues>
            -1.4003615081310272e-01 3.3235576748847961e-01</leafValues></_>
        <_>
          <internalNodes>
            0 -1 355 -7.1331014623865485e-05</internalNodes>
          <leafValues>
            3.4501582384109497e-01 -1.3577045500278473e-01</leafValues></_>
        <_>
          <internalNodes>
            0 -1 312 2.2656589862890542e-04</internalNodes>
          <leafValues>
            -7.0968225598335266e-02 6.2023371458053589e-01</leafValues></_>
        <_>
          <internalNodes>
            0 -1 372 -4.9285927161690779e-06</internalNodes>
          <leafValues>
            2.4993294477462769e-01 -1.9027768075466156e-01</leafValues></_>
        <_>
          <internalNodes>
            0 -1 179 -5.5271532619372010e-04</internalNodes>
          <leafValues>
            3.0010455846786499e-01 -1.6502919793128967e-01</leafValues></_>
        <_>
          <internalNodes>
            0 -1 88 -6.1752125620841980e-02</internalNodes>
          <leafValues>
            8.8334590196609497e-01 -6.3035070896148682e-02</leafValues></_>
        <_>
          <internalNodes>
            0 -1 398 4.3521849438548088e-03</internalNodes>
          <leafValues>
            8.7748326361179352e-02 -7.6624137163162231e-01</leafValues></_></weakClassifiers></_>
    <!-- stage 18 -->
    <_>
      <maxWeakCount>24</maxWeakCount>
      <stageThreshold>-4.9639302492141724e-01</stageThreshold>
      <weakClassifiers>
        <_>
          <internalNodes>
            0 -1 11 1.1611539125442505e+00</internalNodes>
          <leafValues>
            -1.8705036491155624e-02 5.5121952295303345e-01</leafValues></_>
        <_>
          <internalNodes>
            0 -1 36 1.2714350596070290e-03</internalNodes>
          <leafValues>
            1.0135229676961899e-01 -4.1244176030158997e-01</leafValues></_>
        <_>
          <internalNodes>
            0 -1 124 5.0696888938546181e-03</internalNodes>
          <leafValues>
            -6.0089502483606339e-02 7.1958482265472412e-01</leafValues></_>
        <_>
          <internalNodes>
            0 -1 175 -2.2149623837321997e-03</internalNodes>
          <leafValues>
            -7.1704077720642090e-01 4.1790734976530075e-02</leafValues></_>
        <_>
          <internalNodes>
            0 -1 295 -1.0600396199151874e-03</internalNodes>
          <leafValues>
            4.6205070614814758e-01 -7.0283025503158569e-02</leafValues></_>
        <_>
          <internalNodes>
            0 -1 227 2.1226961165666580e-02</internalNodes>
          <leafValues>
            4.1215911507606506e-02 -5.8588093519210815e-01</leafValues></_>
        <_>
          <internalNodes>
            0 -1 166 -4.2435504496097565e-02</internalNodes>
          <leafValues>
            -5.4067176580429077e-01 9.5470905303955078e-02</leafValues></_>
        <_>
          <internalNodes>
            0 -1 320 -2.0372166181914508e-04</internalNodes>
          <leafValues>
            2.0307791233062744e-01 -2.1373699605464935e-01</leafValues></_>
        <_>
          <internalNodes>
            0 -1 33 -2.1019272506237030e-02</internalNodes>
          <leafValues>
            -8.0235248804092407e-01 5.6736990809440613e-02</leafValues></_>
        <_>
          <internalNodes>
            0 -1 342 1.5509763034060597e-04</internalNodes>
          <leafValues>
            1.4055702090263367e-01 -3.0033344030380249e-01</leafValues></_>
        <_>
          <internalNodes>
            0 -1 280 2.3217833950184286e-04</internalNodes>
          <leafValues>
            -1.6801030933856964e-01 2.6433882117271423e-01</leafValues></_>
        <_>
          <internalNodes>
            0 -1 333 -7.9709701240062714e-03</internalNodes>
          <leafValues>
            3.1274634599685669e-01 -1.5908472239971161e-01</leafValues></_>
        <_>
          <internalNodes>
            0 -1 56 1.0512651351746172e-04</internalNodes>
          <leafValues>
            1.8409362435340881e-01 -2.4247489869594574e-01</leafValues></_>
        <_>
          <internalNodes>
            0 -1 259 4.6662110835313797e-03</internalNodes>
          <leafValues>
            -1.9035336375236511e-01 2.3787763714790344e-01</leafValues></_>
        <_>
          <internalNodes>
            0 -1 278 3.2241459935903549e-02</internalNodes>
          <leafValues>
            1.9024948775768280e-01 -2.6578190922737122e-01</leafValues></_>
        <_>
          <internalNodes>
            0 -1 207 1.0062741348519921e-03</internalNodes>
          <leafValues>
            -1.3872261345386505e-01 3.6508491635322571e-01</leafValues></_>
        <_>
          <internalNodes>
            0 -1 391 -1.1859990991069935e-05</internalNodes>
          <leafValues>
            2.9419881105422974e-01 -1.7112675309181213e-01</leafValues></_>
        <_>
          <internalNodes>
            0 -1 386 -8.8639678433537483e-03</internalNodes>
          <leafValues>
            -4.1873821616172791e-01 1.3120111823081970e-01</leafValues></_>
        <_>
          <internalNodes>
            0 -1 78 -7.1241648402065039e-04</internalNodes>
          <leafValues>
            1.7601828277111053e-01 -2.5789102911949158e-01</leafValues></_>
        <_>
          <internalNodes>
            0 -1 57 2.0530454348772764e-03</internalNodes>
          <leafValues>
            -8.8947132229804993e-02 5.3911501169204712e-01</leafValues></_>
        <_>
          <internalNodes>
            0 -1 385 -4.6507612569257617e-04</internalNodes>
          <leafValues>
            2.5582200288772583e-01 -2.0444074273109436e-01</leafValues></_>
        <_>
          <internalNodes>
            0 -1 394 1.1282900348305702e-02</internalNodes>
          <leafValues>
            7.1828491985797882e-02 -6.8988937139511108e-01</leafValues></_>
        <_>
          <internalNodes>
            0 -1 383 -4.5248001697473228e-05</internalNodes>
          <leafValues>
            2.2076395153999329e-01 -2.0290242135524750e-01</leafValues></_>
        <_>
          <internalNodes>
            0 -1 362 -5.5823300499469042e-04</internalNodes>
          <leafValues>
            2.7072295546531677e-01 -1.7308412492275238e-01</leafValues></_></weakClassifiers></_>
    <!-- stage 19 -->
    <_>
      <maxWeakCount>28</maxWeakCount>
      <stageThreshold>-5.1674461364746094e-01</stageThreshold>
      <weakClassifiers>
        <_>
          <internalNodes>
            0 -1 30 8.4303431212902069e-03</internalNodes>
          <leafValues>
            4.6454768627882004e-02 7.5609755516052246e-01</leafValues></_>
        <_>
          <internalNodes>
            0 -1 74 1.7393770394846797e-04</internalNodes>
          <leafValues>
            9.7870893776416779e-02 -3.9677938818931580e-01</leafValues></_>
        <_>
          <internalNodes>
            0 -1 192 7.5959235429763794e-02</internalNodes>
          <leafValues>
            5.4544173181056976e-02 -7.3149168491363525e-01</leafValues></_>
        <_>
          <internalNodes>
            0 -1 136 1.5184669755399227e-02</internalNodes>
          <leafValues>
            -2.2274537011981010e-02 7.5390958786010742e-01</leafValues></_>
        <_>
          <internalNodes>
            0 -1 138 -1.4963659644126892e-01</internalNodes>
          <leafValues>
            8.2097542285919189e-01 -9.2471688985824585e-02</leafValues></_>
        <_>
          <internalNodes>
            0 -1 374 -1.2708568247035146e-03</internalNodes>
          <leafValues>
            2.1734806895256042e-01 -2.0309448242187500e-01</leafValues></_>
        <_>
          <internalNodes>
            0 -1 315 -9.2127138486830518e-06</internalNodes>
          <leafValues>
            2.2875466942787170e-01 -2.1729376912117004e-01</leafValues></_>
        <_>
          <internalNodes>
            0 -1 323 7.0757465437054634e-05</internalNodes>
          <leafValues>
            -1.5882974863052368e-01 2.4495248496532440e-01</leafValues></_>
        <_>
          <internalNodes>
            0 -1 53 4.1985273128375411e-05</internalNodes>
          <leafValues>
            1.4170393347740173e-01 -3.1944760680198669e-01</leafValues></_>
        <_>
          <internalNodes>
            0 -1 199 2.1045922767370939e-03</internalNodes>
          <leafValues>
            4.6894524246454239e-02 -6.7425817251205444e-01</leafValues></_>
        <_>
          <internalNodes>
            0 -1 241 3.0408770544454455e-04</internalNodes>
          <leafValues>
            -1.8065571784973145e-01 2.4674509465694427e-01</leafValues></_>
        <_>
          <internalNodes>
            0 -1 80 1.7647273838520050e-02</internalNodes>
          <leafValues>
            -7.4926123023033142e-02 6.1538344621658325e-01</leafValues></_>
        <_>
          <internalNodes>
            0 -1 238 6.9286278448998928e-04</internalNodes>
          <leafValues>
            -1.7548066377639771e-01 2.6245760917663574e-01</leafValues></_>
        <_>
          <internalNodes>
            0 -1 35 -6.8499484768835828e-06</internalNodes>
          <leafValues>
            2.3966921865940094e-01 -1.9975426793098450e-01</leafValues></_>
        <_>
          <internalNodes>
            0 -1 64 7.5550524343270808e-05</internalNodes>
          <leafValues>
            1.6869220137596130e-01 -2.7743485569953918e-01</leafValues></_>
        <_>
          <internalNodes>
            0 -1 169 1.1882359831361100e-04</internalNodes>
          <leafValues>
            2.0071288943290710e-01 -2.7453598380088806e-01</leafValues></_>
        <_>
          <internalNodes>
            0 -1 40 2.8603035025298595e-03</internalNodes>
          <leafValues>
            -1.0639247298240662e-01 4.8145458102226257e-01</leafValues></_>
        <_>
          <internalNodes>
            0 -1 44 1.0389219969511032e-03</internalNodes>
          <leafValues>
            -1.0570491105318069e-01 4.3143203854560852e-01</leafValues></_>
        <_>
          <internalNodes>
            0 -1 16 8.9675544586498290e-05</internalNodes>
          <leafValues>
            1.7877206206321716e-01 -2.8461542725563049e-01</leafValues></_>
        <_>
          <internalNodes>
            0 -1 357 2.2678927052766085e-03</internalNodes>
          <leafValues>
            1.0016994178295135e-01 -4.9936610460281372e-01</leafValues></_>
        <_>
          <internalNodes>
            0 -1 375 4.8720939958002418e-05</internalNodes>
          <leafValues>
            -1.5239180624485016e-01 3.3312520384788513e-01</leafValues></_>
        <_>
          <internalNodes>
            0 -1 381 5.5098818847909570e-05</internalNodes>
          <leafValues>
            1.9672113656997681e-01 -2.7058383822441101e-01</leafValues></_>
        <_>
          <internalNodes>
            0 -1 117 -1.7324005602858961e-04</internalNodes>
          <leafValues>
            2.8253746032714844e-01 -1.8829812109470367e-01</leafValues></_>
        <_>
          <internalNodes>
            0 -1 399 2.3321555927395821e-03</internalNodes>
          <leafValues>
            9.3655571341514587e-02 -5.1589679718017578e-01</leafValues></_>
        <_>
          <internalNodes>
            0 -1 2 9.4620352610945702e-03</internalNodes>
          <leafValues>
            -1.0732329636812210e-01 4.5849433541297913e-01</leafValues></_>
        <_>
          <internalNodes>
            0 -1 366 2.3671332746744156e-03</internalNodes>
          <leafValues>
            1.7201858758926392e-01 -2.8586366772651672e-01</leafValues></_>
        <_>
          <internalNodes>
            0 -1 245 -5.5154003202915192e-03</internalNodes>
          <leafValues>
            3.7036150693893433e-01 -1.3964240252971649e-01</leafValues></_>
        <_>
          <internalNodes>
            0 -1 197 -2.8057504096068442e-04</internalNodes>
          <leafValues>
            2.2457113862037659e-01 -2.1974906325340271e-01</leafValues></_></weakClassifiers></_></stages>
  <features>
    <_>
      <rects>
        <_>
          0 0 3 20 -1.</_>
        <_>
          0 5 3 10 2.</_></rects>
      <tilted>0</tilted></_>
    <_>
      <rects>
        <_>
          0 0 36 39 -1.</_>
        <_>
          12 13 12 13 9.</_></rects>
      <tilted>0</tilted></_>
    <_>
      <rects>
        <_>
          0 0 39 4 -1.</_>
        <_>
          0 2 39 2 2.</_></rects>
      <tilted>0</tilted></_>
    <_>
      <rects>
        <_>
          0 1 4 10 -1.</_>
        <_>
          2 1 2 10 2.</_></rects>
      <tilted>0</tilted></_>
    <_>
      <rects>
        <_>
          0 1 3 3 -1.</_>
        <_>
          0 2 3 1 3.</_></rects>
      <tilted>0</tilted></_>
    <_>
      <rects>
        <_>
          0 2 4 35 -1.</_>
        <_>
          2 2 2 35 2.</_></rects>
      <tilted>0</tilted></_>
    <_>
      <rects>
        <_>
          0 2 6 31 -1.</_>
        <_>
          3 2 3 31 2.</_></rects>
      <tilted>0</tilted></_>
    <_>
      <rects>
        <_>
          0 2 21 25 -1.</_>
        <_>
          7 2 7 25 3.</_></rects>
      <tilted>0</tilted></_>
    <_>
      <rects>
        <_>
          0 2 36 36 -1.</_>
        <_>
          12 14 12 12 9.</_></rects>
      <tilted>0</tilted></_>
    <_>
      <rects>
        <_>
          0 3 4 23 -1.</_>
        <_>
          2 3 2 23 2.</_></rects>
      <tilted>0</tilted></_>
    <_>
      <rects>
        <_>
          0 3 6 36 -1.</_>
        <_>
          3 3 3 36 2.</_></rects>
      <tilted>0</tilted></_>
    <_>
      <rects>
        <_>
          0 3 39 36 -1.</_>
        <_>
          13 15 13 12 9.</_></rects>
      <tilted>0</tilted></_>
    <_>
      <rects>
        <_>
          0 4 6 24 -1.</_>
        <_>
          0 4 3 12 2.</_>
        <_>
          3 16 3 12 2.</_></rects>
      <tilted>0</tilted></_>
    <_>
      <rects>
        <_>
          0 4 12 31 -1.</_>
        <_>
          6 4 6 31 2.</_></rects>
      <tilted>0</tilted></_>
    <_>
      <rects>
        <_>
          0 4 39 33 -1.</_>
        <_>
          13 15 13 11 9.</_></rects>
      <tilted>0</tilted></_>
    <_>
      <rects>
        <_>
          0 4 39 36 -1.</_>
        <_>
          13 16 13 12 9.</_></rects>
      <tilted>0</tilted></_>
    <_>
      <rects>
        <_>
          0 5 3 3 -1.</_>
        <_>
          1 6 1 1 9.</_></rects>
      <tilted>0</tilted></_>
    <_>
      <rects>
        <_>
          0 5 1 33 -1.</_>
        <_>
          0 16 1 11 3.</_></rects>
      <tilted>0</tilted></_>
    <_>
      <rects>
        <_>
          0 6 1 4 -1.</_>
        <_>
          0 7 1 2 2.</_></rects>
      <tilted>0</tilted></_>
    <_>
      <rects>
        <_>
          0 6 9 3 -1.</_>
        <_>
          3 6 3 3 3.</_></rects>
      <tilted>0</tilted></_>
    <_>
      <rects>
        <_>
          0 7 15 20 -1.</_>
        <_>
          0 17 15 10 2.</_></rects>
      <tilted>0</tilted></_>
    <_>
      <rects>
        <_>
          0 8 33 30 -1.</_>
        <_>
          11 18 11 10 9.</_></rects>
      <tilted>0</tilted></_>
    <_>
      <rects>
        <_>
          0 9 6 11 -1.</_>
        <_>
          3 9 3 11 2.</_></rects>
      <tilted>0</tilted></_>
    <_>
      <rects>
        <_>
          0 9 32 25 -1.</_>
        <_>
          8 9 16 25 2.</_></rects>
      <tilted>0</tilted></_>
    <_>
      <rects>
        <_>
          0 10 1 4 -1.</_>
        <_>
          0 11 1 2 2.</_></rects>
      <tilted>0</tilted></_>
    <_>
      <rects>
        <_>
          0 11 4 3 -1.</_>
        <_>
          0 12 4 1 3.</_></rects>
      <tilted>0</tilted></_>
    <_>
      <rects>
        <_>
          0 12 39 27 -1.</_>
        <_>
          13 21 13 9 9.</_></rects>
      <tilted>0</tilted></_>
    <_>
      <rects>
        <_>
          0 17 12 6 -1.</_>
        <_>
          0 19 12 2 3.</_></rects>
      <tilted>0</tilted></_>
    <_>
      <rects>
        <_>
          0 19 12 3 -1.</_>
        <_>
          3 19 6 3 2.</_></rects>
      <tilted>0</tilted></_>
    <_>
      <rects>
        <_>
          0 19 5 4 -1.</_>
        <_>
          0 21 5 2 2.</_></rects>
      <tilted>0</tilted></_>
    <_>
      <rects>
        <_>
          0 21 4 14 -1.</_>
        <_>
          2 21 2 14 2.</_></rects>
      <tilted>0</tilted></_>
    <_>
      <rects>
        <_>
          0 21 8 1 -1.</_>
        <_>
          4 21 4 1 2.</_></rects>
      <tilted>0</tilted></_>
    <_>
      <rects>
        <_>
          0 28 9 3 -1.</_>
        <_>
          0 29 9 1 3.</_></rects>
      <tilted>0</tilted></_>
    <_>
      <rects>
        <_>
          0 34 16 3 -1.</_>
        <_>
          8 34 8 3 2.</_></rects>
      <tilted>0</tilted></_>
    <_>
      <rects>
        <_>
          0 36 4 4 -1.</_>
        <_>
          0 36 2 2 2.</_>
        <_>
          2 38 2 2 2.</_></rects>
      <tilted>0</tilted></_>
    <_>
      <rects>
        <_>
          1 0 6 4 -1.</_>
        <_>
          3 0 2 4 3.</_></rects>
      <tilted>0</tilted></_>
    <_>
      <rects>
        <_>
          1 0 12 1 -1.</_>
        <_>
          4 0 6 1 2.</_></rects>
      <tilted>0</tilted></_>
    <_>
      <rects>
        <_>
          1 0 32 2 -1.</_>
        <_>
          9 0 16 2 2.</_></rects>
      <tilted>0</tilted></_>
    <_>
      <rects>
        <_>
          1 1 3 22 -1.</_>
        <_>
          2 1 1 22 3.</_></rects>
      <tilted>0</tilted></_>
    <_>
      <rects>
        <_>
          1 1 32 4 -1.</_>
        <_>
          17 1 16 4 2.</_></rects>
      <tilted>0</tilted></_>
    <_>
      <rects>
        <_>
          1 2 2 20 -1.</_>
        <_>
          2 2 1 20 2.</_></rects>
      <tilted>0</tilted></_>
    <_>
      <rects>
        <_>
          1 2 8 26 -1.</_>
        <_>
          5 2 4 26 2.</_></rects>
      <tilted>0</tilted></_>
    <_>
      <rects>
        <_>
          1 2 24 33 -1.</_>
        <_>
          9 13 8 11 9.</_></rects>
      <tilted>0</tilted></_>
    <_>
      <rects>
        <_>
          1 4 36 36 -1.</_>
        <_>
          13 16 12 12 9.</_></rects>
      <tilted>0</tilted></_>
    <_>
      <rects>
        <_>
          1 7 2 30 -1.</_>
        <_>
          1 7 1 15 2.</_>
        <_>
          2 22 1 15 2.</_></rects>
      <tilted>0</tilted></_>
    <_>
      <rects>
        <_>
          1 8 4 1 -1.</_>
        <_>
          2 8 2 1 2.</_></rects>
      <tilted>0</tilted></_>
    <_>
      <rects>
        <_>
          1 9 12 31 -1.</_>
        <_>
          7 9 6 31 2.</_></rects>
      <tilted>0</tilted></_>
    <_>
      <rects>
        <_>
          1 10 2 2 -1.</_>
        <_>
          1 10 1 1 2.</_>
        <_>
          2 11 1 1 2.</_></rects>
      <tilted>0</tilted></_>
    <_>
      <rects>
        <_>
          1 12 6 26 -1.</_>
        <_>
          1 12 3 13 2.</_>
        <_>
          4 25 3 13 2.</_></rects>
      <tilted>0</tilted></_>
    <_>
      <rects>
        <_>
          1 15 20 1 -1.</_>
        <_>
          6 20 10 1 2.</_></rects>
      <tilted>1</tilted></_>
    <_>
      <rects>
        <_>
          1 17 14 20 -1.</_>
        <_>
          1 22 14 10 2.</_></rects>
      <tilted>0</tilted></_>
    <_>
      <rects>
        <_>
          1 19 36 1 -1.</_>
        <_>
          10 19 18 1 2.</_></rects>
      <tilted>0</tilted></_>
    <_>
      <rects>
        <_>
          1 21 36 4 -1.</_>
        <_>
          10 21 18 4 2.</_></rects>
      <tilted>0</tilted></_>
    <_>
      <rects>
        <_>
          1 26 1 4 -1.</_>
        <_>
          1 27 1 2 2.</_></rects>
      <tilted>0</tilted></_>
    <_>
      <rects>
        <_>
          1 29 33 8 -1.</_>
        <_>
          1 33 33 4 2.</_></rects>
      <tilted>0</tilted></_>
    <_>
      <rects>
        <_>
          1 37 36 2 -1.</_>
        <_>
          13 37 12 2 3.</_></rects>
      <tilted>0</tilted></_>
    <_>
      <rects>
        <_>
          2 2 3 6 -1.</_>
        <_>
          2 4 3 2 3.</_></rects>
      <tilted>0</tilted></_>
    <_>
      <rects>
        <_>
          2 3 11 4 -1.</_>
        <_>
          2 4 11 2 2.</_></rects>
      <tilted>0</tilted></_>
    <_>
      <rects>
        <_>
          2 9 36 24 -1.</_>
        <_>
          2 21 36 12 2.</_></rects>
      <tilted>0</tilted></_>
    <_>
      <rects>
        <_>
          2 10 16 18 -1.</_>
        <_>
          2 10 8 9 2.</_>
        <_>
          10 19 8 9 2.</_></rects>
      <tilted>0</tilted></_>
    <_>
      <rects>
        <_>
          2 10 28 30 -1.</_>
        <_>
          2 25 28 15 2.</_></rects>
      <tilted>0</tilted></_>
    <_>
      <rects>
        <_>
          2 19 3 20 -1.</_>
        <_>
          3 19 1 20 3.</_></rects>
      <tilted>0</tilted></_>
    <_>
      <rects>
        <_>
          2 27 34 12 -1.</_>
        <_>
          2 30 34 6 2.</_></rects>
      <tilted>0</tilted></_>
    <_>
      <rects>
        <_>
          2 31 2 6 -1.</_>
        <_>
          2 31 1 3 2.</_>
        <_>
          3 34 1 3 2.</_></rects>
      <tilted>0</tilted></_>
    <_>
      <rects>
        <_>
          2 37 12 3 -1.</_>
        <_>
          2 38 12 1 3.</_></rects>
      <tilted>0</tilted></_>
    <_>
      <rects>
        <_>
          3 0 6 30 -1.</_>
        <_>
          6 0 3 30 2.</_></rects>
      <tilted>0</tilted></_>
    <_>
      <rects>
        <_>
          3 1 30 39 -1.</_>
        <_>
          18 1 15 39 2.</_></rects>
      <tilted>0</tilted></_>
    <_>
      <rects>
        <_>
          3 3 12 22 -1.</_>
        <_>
          6 3 6 22 2.</_></rects>
      <tilted>0</tilted></_>
    <_>
      <rects>
        <_>
          3 13 8 27 -1.</_>
        <_>
          3 22 8 9 3.</_></rects>
      <tilted>0</tilted></_>
    <_>
      <rects>
        <_>
          3 14 24 2 -1.</_>
        <_>
          3 14 12 1 2.</_>
        <_>
          15 15 12 1 2.</_></rects>
      <tilted>0</tilted></_>
    <_>
      <rects>
        <_>
          3 15 21 3 -1.</_>
        <_>
          2 16 21 1 3.</_></rects>
      <tilted>1</tilted></_>
    <_>
      <rects>
        <_>
          3 17 12 12 -1.</_>
        <_>
          3 17 6 6 2.</_>
        <_>
          9 23 6 6 2.</_></rects>
      <tilted>0</tilted></_>
    <_>
      <rects>
        <_>
          3 20 21 3 -1.</_>
        <_>
          3 21 21 1 3.</_></rects>
      <tilted>0</tilted></_>
    <_>
      <rects>
        <_>
          3 24 27 3 -1.</_>
        <_>
          3 25 27 1 3.</_></rects>
      <tilted>0</tilted></_>
    <_>
      <rects>
        <_>
          3 27 3 1 -1.</_>
        <_>
          4 28 1 1 3.</_></rects>
      <tilted>1</tilted></_>
    <_>
      <rects>
        <_>
          3 29 7 2 -1.</_>
        <_>
          3 29 7 1 2.</_></rects>
      <tilted>1</tilted></_>
    <_>
      <rects>
        <_>
          3 37 14 3 -1.</_>
        <_>
          10 37 7 3 2.</_></rects>
      <tilted>0</tilted></_>
    <_>
      <rects>
        <_>
          4 0 24 1 -1.</_>
        <_>
          12 0 8 1 3.</_></rects>
      <tilted>0</tilted></_>
    <_>
      <rects>
        <_>
          4 0 30 9 -1.</_>
        <_>
          4 3 30 3 3.</_></rects>
      <tilted>0</tilted></_>
    <_>
      <rects>
        <_>
          4 1 33 39 -1.</_>
        <_>
          15 14 11 13 9.</_></rects>
      <tilted>0</tilted></_>
    <_>
      <rects>
        <_>
          4 3 26 6 -1.</_>
        <_>
          4 3 13 3 2.</_>
        <_>
          17 6 13 3 2.</_></rects>
      <tilted>0</tilted></_>
    <_>
      <rects>
        <_>
          4 4 33 36 -1.</_>
        <_>
          15 16 11 12 9.</_></rects>
      <tilted>0</tilted></_>
    <_>
      <rects>
        <_>
          4 4 14 3 -1.</_>
        <_>
          4 5 14 1 3.</_></rects>
      <tilted>0</tilted></_>
    <_>
      <rects>
        <_>
          4 6 4 2 -1.</_>
        <_>
          4 7 4 1 2.</_></rects>
      <tilted>0</tilted></_>
    <_>
      <rects>
        <_>
          4 6 18 32 -1.</_>
        <_>
          4 22 18 16 2.</_></rects>
      <tilted>0</tilted></_>
    <_>
      <rects>
        <_>
          4 10 16 16 -1.</_>
        <_>
          4 10 8 8 2.</_>
        <_>
          12 18 8 8 2.</_></rects>
      <tilted>0</tilted></_>
    <_>
      <rects>
        <_>
          4 13 1 3 -1.</_>
        <_>
          3 14 1 1 3.</_></rects>
      <tilted>1</tilted></_>
    <_>
      <rects>
        <_>
          4 19 8 1 -1.</_>
        <_>
          6 19 4 1 2.</_></rects>
      <tilted>0</tilted></_>
    <_>
      <rects>
        <_>
          4 20 8 16 -1.</_>
        <_>
          4 28 8 8 2.</_></rects>
      <tilted>0</tilted></_>
    <_>
      <rects>
        <_>
          4 30 12 10 -1.</_>
        <_>
          4 35 12 5 2.</_></rects>
      <tilted>0</tilted></_>
    <_>
      <rects>
        <_>
          4 34 15 6 -1.</_>
        <_>
          9 34 5 6 3.</_></rects>
      <tilted>0</tilted></_>
    <_>
      <rects>
        <_>
          4 35 4 1 -1.</_>
        <_>
          6 35 2 1 2.</_></rects>
      <tilted>0</tilted></_>
    <_>
      <rects>
        <_>
          4 35 15 2 -1.</_>
        <_>
          9 35 5 2 3.</_></rects>
      <tilted>0</tilted></_>
    <_>
      <rects>
        <_>
          4 38 2 2 -1.</_>
        <_>
          5 38 1 2 2.</_></rects>
      <tilted>0</tilted></_>
    <_>
      <rects>
        <_>
          5 0 26 12 -1.</_>
        <_>
          5 3 26 6 2.</_></rects>
      <tilted>0</tilted></_>
    <_>
      <rects>
        <_>
          5 1 14 6 -1.</_>
        <_>
          5 4 14 3 2.</_></rects>
      <tilted>0</tilted></_>
    <_>
      <rects>
        <_>
          5 3 20 12 -1.</_>
        <_>
          5 9 20 6 2.</_></rects>
      <tilted>0</tilted></_>
    <_>
      <rects>
        <_>
          5 6 10 30 -1.</_>
        <_>
          5 16 10 10 3.</_></rects>
      <tilted>0</tilted></_>
    <_>
      <rects>
        <_>
          5 8 4 16 -1.</_>
        <_>
          5 8 2 8 2.</_>
        <_>
          7 16 2 8 2.</_></rects>
      <tilted>0</tilted></_>
    <_>
      <rects>
        <_>
          5 11 2 8 -1.</_>
        <_>
          5 11 1 4 2.</_>
        <_>
          6 15 1 4 2.</_></rects>
      <tilted>0</tilted></_>
    <_>
      <rects>
        <_>
          5 15 11 24 -1.</_>
        <_>
          5 21 11 12 2.</_></rects>
      <tilted>0</tilted></_>
    <_>
      <rects>
        <_>
          5 15 33 18 -1.</_>
        <_>
          16 21 11 6 9.</_></rects>
      <tilted>0</tilted></_>
    <_>
      <rects>
        <_>
          5 21 33 9 -1.</_>
        <_>
          16 24 11 3 9.</_></rects>
      <tilted>0</tilted></_>
    <_>
      <rects>
        <_>
          5 21 34 12 -1.</_>
        <_>
          5 21 17 6 2.</_>
        <_>
          22 27 17 6 2.</_></rects>
      <tilted>0</tilted></_>
    <_>
      <rects>
        <_>
          5 31 4 3 -1.</_>
        <_>
          6 32 2 3 2.</_></rects>
      <tilted>1</tilted></_>
    <_>
      <rects>
        <_>
          5 34 1 2 -1.</_>
        <_>
          5 35 1 1 2.</_></rects>
      <tilted>0</tilted></_>
    <_>
      <rects>
        <_>
          5 36 15 3 -1.</_>
        <_>
          10 37 5 1 9.</_></rects>
      <tilted>0</tilted></_>
    <_>
      <rects>
        <_>
          6 0 24 1 -1.</_>
        <_>
          12 0 12 1 2.</_></rects>
      <tilted>0</tilted></_>
    <_>
      <rects>
        <_>
          6 0 30 30 -1.</_>
        <_>
          6 0 15 15 2.</_>
        <_>
          21 15 15 15 2.</_></rects>
      <tilted>0</tilted></_>
    <_>
      <rects>
        <_>
          6 1 26 2 -1.</_>
        <_>
          6 2 26 1 2.</_></rects>
      <tilted>0</tilted></_>
    <_>
      <rects>
        <_>
          6 6 15 20 -1.</_>
        <_>
          6 16 15 10 2.</_></rects>
      <tilted>0</tilted></_>
    <_>
      <rects>
        <_>
          6 8 1 28 -1.</_>
        <_>
          6 22 1 14 2.</_></rects>
      <tilted>0</tilted></_>
    <_>
      <rects>
        <_>
          6 8 28 2 -1.</_>
        <_>
          13 8 14 2 2.</_></rects>
      <tilted>0</tilted></_>
    <_>
      <rects>
        <_>
          6 10 29 4 -1.</_>
        <_>
          6 11 29 2 2.</_></rects>
      <tilted>0</tilted></_>
    <_>
      <rects>
        <_>
          6 11 4 4 -1.</_>
        <_>
          7 11 2 4 2.</_></rects>
      <tilted>0</tilted></_>
    <_>
      <rects>
        <_>
          6 14 4 10 -1.</_>
        <_>
          6 14 2 5 2.</_>
        <_>
          8 19 2 5 2.</_></rects>
      <tilted>0</tilted></_>
    <_>
      <rects>
        <_>
